-0.0363084 0.0364748 -0.0167715 -0.0326788 -0.0549896 -0.0440876 0.0389642 -0.0133466 -0.0315272 0.00281875 -0.0319626 -0.00356451 -0.0108278 0.0113652 0.029581 -0.0115786 0.00955233 -0.0228776 0.0168131 -0.0500388 -0.0340996 0.0329158 -0.00593093 0.0184115 -0.0194467 0.0178761 -0.0374599 0.0419361 0.0118635 0.0234796 -0.0473151 -0.00964893 0.00167674 -0.0260972 0.018733 -0.0211571 -0.0430527 -0.0217268 -0.0507025 0.0213191 -0.0308147 -0.0461574 0.0257052 -0.0583377 -0.0271211 -0.00612938 -0.0196119 0.0453552 0.0328973 -0.0187442 -0.0081596 -0.00788674 -0.0256022 -0.0213282 0.0361335 -0.0318851 -0.0156783 -0.01442 0.0220742 0.0126933 0.0245558 -0.00335429 -0.0047509 0.0427907 -0.0645263 -0.0232612 0.0543469 -0.00740189 0.000384681 0.0278852 -0.000296368 0.0354122 -0.0150653 -0.0284307 0.0352182 0.0120816 0.0306528 0.0397085 0.0310322 0.0455028 0.022422 0.0301653 0.0169511 -0.000332496 0.0588672 -0.0206369 -0.0467327 -0.0379291 -0.00946375 -0.0131323 -0.053727 0.0232315 -0.00305274 0.0212652 0.0119425 -0.0169939 -0.0280448 0.0020919 0.030851 -0.0267411 -0.0191896 -0.0469301 0.012606 -0.0371326 -0.00688302 0.0453044 0.0572107 -0.0490089 -0.0264201 -0.00468477 -0.0159669 0.034225 -0.0193819 -0.00833319 -0.0360344 0.0185681 0.0190259 -0.0221134 -0.034718 0.0105141 0.0121585 -0.0123614 0.0226047 -0.017971 -0.0611583 0.0176366 -0.00483341 -0.0679744 -0.0110115 0.0281387 -0.040957 -0.00426204 0.022588 0.0183665 0.0400521 -0.0384086 0.0146463 0.0107688 -0.0338909 0.00109173 -0.0516366 -0.00172004 0.0294898 -0.0246824 -0.0648749 0.00540907 0.0156481 -0.0138165 0.0253144 -0.036672 -0.00747674 -0.0349612 -0.0363545 -0.0306993 0.0232634 0.0376338 0.018607 -0.0194511 -0.0132714 -0.00633871 -0.00897224 -0.0236828 0.00409932 -0.0112343 -0.00998644 -0.0384287 -0.032768 -0.00757053 -0.0124267 0.0226503 0.0163719 -0.023379 -0.0230191 0.00191642 0.0662383 0.0459029 -0.0368704 0.0373058 -0.0158009 -0.00474611 0.0128418 0.0424538 0.0215943 0.0256763 -0.0488702 -0.0491427 0.0428047 -0.0203103 -0.0494567 0.0222082 0.00688153 -0.00929813 -0.0103862 -0.048042 -0.0361508 0.0250761 0.0150976 0.0416526 0.0500821 -0.0456708 0.061741 -0.00705663 0.0236049 -0.0102323 0.0217358 0.0141389 0.02457 0.0126311 0.0345149 0.00718328 -0.0214596 -0.0352429 0.0407456 0.0173597 -0.0198707 -0.0115912 -0.0284169 0.0222869 0.0154892 -0.0307198 0.0279355 -0.0386728 -0.000748581 -0.027624 0.0312891 0.0257883 -0.0535888 -0.0159659 0.0443799 0.01436 0.0247829 -0.0226736 -0.0106737 -0.00492114 0.00378207 0.0301095 -0.0153408 0.051354 -0.00411926 0.0296644 0.0574088 0.0479121 0.0404262 0.0360989 -0.00957831 -0.020474 -0.0503816 0.0202968 0.0473582 -0.0257654 0.0325488 0.00171612 -0.0167753 -0.0372478 -0.0297664 -0.050292 0.00275265 0.0126939 0.0116969 0.0241118 -0.0327637 0.0288854 0.0249396 0.00624065 0.0243095 0.0525417 -0.00644832 -0.0350316 0.0286593 -0.0533451 0.00432743 -0.00373176 -0.0128323 0.00784833 0.00540434 0.0167806 -0.0230936 -0.0232687 0.020654 0.0400183 -0.0278768 -0.0444283 -0.0386151 -0.0574591 -0.0143431 -0.0473045 0.0214513 -0.0340311 0.0567069 0.00442251 0.0245364 0.0287475 -0.0260181 -0.00790327 0.0227595 0.0181482 -0.010277 -0.012937 0.0198601 -0.0345198 -0.0433631 0.00884979 -0.0107782 -0.0505241 0.0390532 -0.0518007 0.00667146 -0.0302278 0.00373328 -0.0121042 0.0373678 0.0234442 -0.0212821 -0.0451225 -0.0372601 -0.0106118 -0.00275642 -0.00245037 0.00845445 0.00146445 0.0394012 0.0473942 0.0014635 0.0488198 0.00221753 -0.00557658 0.0148535 0.0153539 0.0223369 0.0169773 -0.0445017 0.0324408 -0.0380713 -0.015164 0.0493419 0.00402271 -0.00998372 0.0162607 0.0303352 -0.0390929 0.0159017 0.00426839 0.0315844 0.0343672 -0.0347902 -0.0227237 0.0484057 0.00319017 -0.0503813 0.0159248 -0.048794 -0.0202927 -0.0448597 -0.0144784 -0.000484155 -0.0453801 -0.0496062 0.00196452 -0.0153196 0.0344241 -0.0287415 0.00901028 0.026735 -0.0282942 0.00956823 0.053865 -0.00377016 -0.00350752 -0.0185034 -0.00244229 -0.0260318 -0.0234525 -0.00503031 0.0228832 -0.0407913 0.00432676 0.00837053 -0.0451745 0.0258907 0.0383937 -0.0527634 -0.0228046 -0.0159615 0.0569663 -0.0333545 0.0348641 -0.0389664 -0.04329 -0.043467 0.00111781 0.0157985 0.0467901 0.0268525 -0.0242064 -0.0118166 0.0314937 0.0120194 0.018237 0.00166528 -0.0200045 -0.0236414 -0.0012173 0.0569537 -0.00289274 0.0320615 0.0264255 -0.0268862 0.0284556 0.0553007 -0.0348512 -0.00144263 -0.0284886 0.0171777 -0.00862664 -0.047764 -0.0472438 -0.000984406 0.0287964 0.0122633 -0.0341808 -0.00708814 -0.0256754 -0.00747322 -0.0198941 -0.0449452 0.025615 -0.0168644 -0.031315 -0.034213 0.0247295 0.0668386 0.0354034 3.91689e-05 0.00176066 -0.00239239 -0.0134434 -0.0189993 0.0376095 0.0263913 0.0241311 -0.0270205 -0.0396481 -0.0413932 -0.0318965 0.0609259 -0.0448748 -0.0454125 -0.0425573 -0.0290543 -0.0196164 0.00381921 0.0254656 -0.0386347 0.0378332 -0.0382586 0.0200307 0.033091 -0.0104347 0.0209261 -0.0103427 0.0332174 0.00381198 -0.0253967 0.0258411 0.0384354 0.0399585 0.0222134 -0.00639507 -0.0195443 0.0296111 0.047059 0.025566 0.0514241 -0.0102839 -0.0116946 -0.00374626 -0.0522573 -0.00533052 0.0464084 -0.0415869 -0.00119717 -0.0421159 0.0196789 -0.0380151 0.034581 -0.0798601 -0.000940051 0.0301332 -0.0330207 0.0505205 -0.0119398 -0.03706 0.0458926 -0.0189023 -0.00655658 0.0572251 0.0396991 -0.0521559 -0.0531463 -0.0161965 0.0348744 -0.0403229 -0.0438936 0.0360057 -0.00300332 -0.050141 -0.0396516 0.0306626 0.0128363 -0.0535903 0.0282249 -0.0137323 -0.028682 -0.0293236 -0.0176292 -0.00808475 0.0407651 -0.00546124 -0.0328647 -0.0441125 0.0490887 -0.0525593 -0.034748 -0.0376401 0.029819 0.0261218 0.0410116 0.0550744 -0.0200074 0.0159806 0.0122017 0.0371756 -0.0103939 -0.00750661 -0.0328367 -0.0358305 -0.0412335 0.0276562 -0.00309116 -0.0158121 0.0441834 -0.00735851 0.0068432 -0.00102692 0.0481123 0.0423448 0.020294 -0.0427003 -0.0302646 0.0202273 0.0425822 -0.00954528 0.0270023 -0.0326004 0.0224823 -0.00208848 -0.0315662 -0.0286994 -0.0128239 0.0349163 -0.0395971 -0.0495416 -0.00767216 -0.0370373 -0.0105751 0.00604582 -0.00250523 -0.0206999 -0.0297394 -0.0257374 0.00281868 0.0186297 -0.017329 0.00520836 -0.0210235 -0.00750217 -0.000176016 0.00319437 -0.0249129 -0.0236078 0.0398201 -0.0105737 0.0275532 -0.0129186 -0.0572392 0.0437653 -0.0134471 -0.0340529 0.000773639 -0.0117669 -0.00985477 0.0301477 -0.00369137 0.0184646 -0.0215247 -0.00142174 0.0138145 -0.0180497 0.0427281 -0.0132854 0.0297303 0.0334912 0.0142814 -0.0215588 -0.0579984 0.0480712 -0.0479574 0.0503952 -0.0282838 -0.0307803 -0.00742344 0.00787233 0.0308802 0.00274519 -0.0428039 -0.026979 -0.00603524 -0.0334622 -0.0223457 0.040049 -0.0341676 -0.0117082 -0.0471128 0.0489251 0.0478486 -0.019373 0.0260134 0.0264247 0.0132581 -0.0214561 -0.0108112 -0.0266765 -0.017223 0.00741904 -0.0354139 -0.03345 -0.00149395 -0.027931 -0.0195379 -0.0185905 -0.0186093 -0.0382645 0.0154916 0.044231 -0.0525308 -0.0340287 0.0179729 0.0393948 -0.0313805 -0.00512744 -0.0257409 -0.0516886 -0.0130822 -0.0336593 0.0128297 -0.00719691 0.00514829 0.0443879 -0.0315387 0.0465581 0.020358 -0.000947699 -0.00930295 -0.0244482 -0.00937033 0.00390554 0.0401258 0.0394536 -0.0131921 -0.0288693 0.0394485 0.00758968 -0.0519064 -0.0458896 -0.0105302 0.000414603 0.0357818 0.0276111 0.00276124 0.0505164 0.0121076 -0.00218086 0.00930432 -0.0254785 0.0446465 0.0027162 -0.0093534 -0.0110944 0.0376239 -0.0313723 -0.00761999 -0.032695 -0.0315852 0.000985791 0.0191757 -0.00818103 -0.00532611 0.00874196 -0.0164251 0.00548483 0.00753568 0.0182062 -0.0204135 -0.0111053 -0.00774658 -0.0128052 -0.0325026 -0.0197483 -0.0322097 0.0296381 0.0209132 -0.0431029 -0.0168746 -0.0548444 0.0579344 -0.0106997 -0.0158146 -0.0309071 0.0164677 -0.00401726 -0.0416388 0.0186702 -0.00395766 0.0340209 0.0067158 0.0364182 -0.0138683 0.0442285 0.00449632 0.00119482 -0.0558119 -0.000666062 0.0465925 0.0231486 0.0549724 -0.0221504 -0.0150493 0.0154954 -0.0273658 0.039781 -0.027028 0.0298432 -0.0346647 -0.000956397 -0.0293074 0.012708 0.00181653 0.0179032 0.0172656 0.00241884 -0.0123364 0.0209388 -0.0172795 0.036456 -0.0159186 -0.0101718 -0.0300798 -0.046864 -0.0191012 -0.0529135 0.0112658 -0.0534834 0.0111882 -0.0620088 -0.00666545 -0.0340194 0.0149193 -0.0237997 -0.00423406 -0.0307893 -0.0202175 -0.0121803 -0.0286599 0.0235143 -0.0527867 0.0149038 0.0092779 -0.0275217 -0.0217871 -0.0223944 -0.0443856 -0.0156674 0.0389485 0.0282382 0.0146699 -0.0199744 -0.00459784 0.0354565 -0.0260063 0.0220343 -0.0196508 -0.0387349 -0.00919176 -0.0337524 -0.00115362 -0.0350687 0.0283529 -0.00713551 -0.00579937 -0.041977 -0.053625 0.00299657 0.0150747 -0.00298537 -0.0403476 -0.040155 0.0382643 0.0110272 0.0299728 0.0402346 0.0226517 0.0322869 0.00332666 -0.051517 -0.0273285 0.00984003 0.0521273 -0.0421425 0.022994 -0.0196673 0.0502288 -0.0531088 -0.0290956 0.0564182 0.0143479 0.0261653 0.00697528 0.00489382 0.0445162 -0.00065917 0.058745 -0.0329979 -0.0172685 0.0290116 0.00914781 0.0410806 -0.0698775 0.0491302 -0.018264 -0.0512203 0.0405903 -0.00852939 -0.0135624 0.0532568 0.030267 -0.027356 0.000607934 -0.00223217 0.0376792 0.0109399 -0.0405607 -0.0547249 0.0161299 -0.0379057 -0.0432633 -0.0336586 -0.032334 0.00867658 -0.0233031 0.0109405 0.00103557 0.0104421 0.00735636 -0.0380782 -0.0313923 0.0188659 -0.0647849 0.0570054 -0.0250946 -0.0135824 0.0398073 0.0488952 0.0362094 0.0497388 -0.0101626 0.0199254 0.0429217 -0.0339217 -0.0134982 0.0282155 -0.00447071 0.00438134 -0.0197528 0.0243404 -0.0445941 0.0437157 -0.0558637 0.0112108 -0.027237 0.0501546 -0.0168779 -0.032983 0.0364032 -0.0349067 0.0313911 -0.0222225 -0.0695463 -0.0204433 -0.00989301 -0.0220299 -0.00177732 -0.0402895 0.0375884 -0.0252245 -0.0276975 0.0199323 0.0535474 0.00217486 -0.0362504 0.0182582 0.0170894 0.00793337 -0.0136961 -0.0218188 -0.0133767 -0.0154349 0.000531791 -0.0442967 0.0186696 0.0526333 0.0201844 0.0271383 -0.00495173 0.0556144 -0.0237827 -0.00924435 0.00405345 -0.0315039 -0.0565388 -0.00737845 -0.0265247 -0.0391379 0.0301445 0.00647717 0.0297814 -0.0433586 -0.0059128 0.0130161 -0.0480219 0.00523242 0.00622046 0.0317262 -0.0312911 0.0415748 -0.0342331 -0.00844219 0.0219359 -0.0290757 0.0074295 -0.0113134 -0.0163545 0.0191573 0.0533961 0.0228572 -0.0216731 0.0383533 -0.0177565 0.000509241 0.0080874 -0.00839564 0.0372434 -0.0252776 -0.0637129 0.0237927 -0.0172545 0.0167826 0.0524744 -0.0307362 -0.0200928 0.0127286 -0.0342272 -0.0192964 -0.0327961 -0.00838039 0.0354911 -0.0222571 -0.0451131 -0.0103374 -0.0228581 -0.0188206 0.0287107 -0.0176845 0.0289497 -0.0122231 -0.0164288 -0.0369776 0.036778 0.0260408 0.0265762 -0.0397106 0.0213259 0.0352374 0.0568824 -0.0628496 -0.00061889 -0.0373579 0.0172365 -0.0354467 0.00410587 0.0273856 -0.0260127 -0.0095513 -0.0119641 -0.0079654 0.0249349 0.015884 -0.0425896 0.0197099 -0.0178889 -0.00732313 -0.00127357 -0.0195042 -0.000498762 0.0393768 0.00867692 -0.0655267 0.00527308 -0.0574239 -0.0279488 0.00176544 0.00295564 0.00892428 0.0012114 -0.0700028 -0.0345902 0.0435192 0.00977295 -0.0676378 -0.0115051 -0.0189384 -0.0139769 0.014196 0.0377031 -0.0545637 -0.032535 0.0631283 0.0092485 0.0205562 -0.000828881 -0.0600731 -0.0342178 0.0621328 0.0236789 0.0527508 0.00786161 0.0291207 -0.00291598 0.0280023 0.0173176 -0.0245817 -0.0334555 0.0324936 -0.0188283 -0.0199235 0.02601 -0.0261092 0.0253573 0.0133542 0.0312502 -0.0280528 -0.0154599 -0.0416328 0.0523963 -0.0446825 0.0379624 -0.0568683 -0.0340843 -0.0191176 -0.0143335 0.0652849 0.0322947 -0.000120736 -0.0117449 0.0331896 0.0279531 0.0309174 -0.049534 -0.0143785 -0.00415801 -0.0318088 0.0277295 -0.0493818 0.0288127 0.0150992 0.00922623 0.0178774 0.0165358 0.027909 -0.0267706 0.0392673 0.0108859 -0.0266613 -0.0534892 -0.0214056 0.0194173 -0.0127384 -0.0164087 -0.00727982 -0.0321256 -0.0460323 0.0141051 0.0400674 -0.0391926 -0.0169605 0.000902432 0.00464733 -0.0723135 -0.00735241 0.0159964 -0.0282487 -0.0645764 -0.0374792 0.0198604 0.0223626 0.0266445 -0.00652118 -0.0341776 0.0151559 -0.0261927 -0.00860035 0.0403404 0.0397849 0.00928684 -0.0328754 -0.0115584 -0.0264449 -0.00979377 0.0128658 -0.0316394 0.00535537 -0.0151213 -0.0252854 -0.0453442 -0.0256352 0.0349906 0.00920931 -0.00721949 0.00176143 -0.0288778 -0.00115506 0.0540823 0.0157481 0.05289 -0.00497671 -0.00270485 0.0122093 -0.0258106 0.0205506 0.0157379 0.0249312 -0.0291205 -0.0135843 0.0358139 -0.0101638 -0.0332391 -0.0405361 -0.000415605 0.0326707 -0.0245868 0.0432418 -0.0730127 -0.0300447 -0.0275147 0.030723 0.0314833 -0.0382098 -0.027458 0.0169628 -0.0220348 -0.00450912 0.024489 -0.0544952 0.0141978 0.011378 -0.0183322 -0.0361905 0.00388783 0.0204242 0.000907585 -0.023388 0.0453596 -0.00979392 0.0254644 -0.0185147 -0.0229093 0.0353958 -0.0417951 0.04883 0.0381001 -0.00948967 -0.00354534 -0.0459182 0.0211419 -0.0413824 -0.0126022 -0.0315633 -0.0238297 -0.022504 -0.022508 0.0141975 -0.0253727 -0.0140303 0.0302963 0.000405658 -0.00198918 0.0483806 0.0158486 -0.0320322 -0.0353008 -0.0271669 0.0070081 0.0169555 -0.04417 0.0143853 0.0364978 0.0489773 0.0407621 -0.0363111 0.0173179 -0.0247071 -0.0317739 0.0456196 0.0168199 0.0392412 0.00200249 0.0126485 -0.0158013 -0.0177744 0.0268679 -0.000197163 0.0164931 -0.0392593 0.0337738 -0.0181373 -0.0375577 -0.00457026 0.0224785 -0.0314184 -0.0378861 -0.0491602 -0.0114692 -0.00996985 -0.0210917 0.0185926 -0.0314802 0.0312674 -0.0285592 -0.0358245 -0.0453327 -0.0307987 0.0170261 0.00654944 0.0315828 -0.0131375 -0.0357561 0.0178548 0.0142505 0.0118504 0.0203936 0.0419298 0.0137181 -0.000665829 -0.0211005 0.00184887 -0.016088 -0.0554847 -0.0472108 -0.00214301 0.0194565 0.0140119 0.0131867 0.0092387 0.00234702 0.009598 0.0345392 -0.0522412 0.00808635 -0.0400922 -0.00774414 -0.00550352 0.0377068 0.0195562 0.0430543 -0.01942 -0.00623876 0.00551226 0.0398291 -0.00563272 -0.0416687 -0.0525343 -0.0515582 0.0219226 -0.00399931 0.0412153 0.0220904 -0.0197526 0.0301579 -0.00446011 0.0322059 -0.00257732 0.00583948 -0.0484714 0.00345983 -0.0241465 -0.00363309 -0.00728941 -0.056168 0.04148 0.0270465 -0.0411831 -0.0322533 -0.00120164 -0.0393614 -0.0276867 -0.00572467 0.0138822 0.0457354 0.0206445 0.0402333 -0.0189197 -0.0211877 -0.00716696 -0.037788 -0.00556667 0.0313524 0.0024872 0.0168557 0.0333005 -0.0416633 -0.0542114 -0.0403012 -0.0186907 0.00335463 -0.0313091 -0.00705971 0.0453379 -0.0440951 -0.00993034 -0.00199773 0.0183869 0.0240565 -0.030979 -0.000913723 -0.0272461 -0.0323492 -0.0386241 -0.040192 -0.0466554 -0.0346237 0.0220504 -0.0380232 0.0159956 0.000382086 -0.0154562 -0.00386207 0.000310896 -0.00872019 0.0234681 0.0384566 -0.001664 0.00087369 -0.039513 -0.054323 -0.0320116 0.0358593 -0.0381925 -0.0365398 0.0218608 -0.0386786 0.0158142 -0.0324236 0.00841121 -0.00818114 -0.0199678 -0.0305461 0.00921527 -0.010183 0.0242878 0.0503762 0.0303656 0.000386269 0.00756826 0.0344294 -0.0459361 0.0472092 -0.0199007 0.031805 0.041984 -0.0377136 -0.0134114 -0.0371579 0.00628105 -0.0182385 -0.0462568 -0.031369 -0.0454579 0.023398 0.011785 -0.0586871 0.0343007 0.0592007 0.0466211 -0.0495312 0.0404792 -0.0660782 0.00594535 0.00762788 -0.0401102 0.00247169 -0.020591 -0.000592446 -0.0391481 -0.0334766 -0.0218104 0.00351848 -0.0436852 0.00255037 -0.0151101 0.0523556 0.0376441 0.0338124 -0.00395204 0.00868881 -0.0439695 0.00832781 0.0115839 -0.00825495 0.00458964 0.0428662 -0.0403742 -0.0272189 0.0244228 0.0262841 0.0122724 0.014251 -0.00713879 0.0210718 0.0125444 0.00994381 -0.027843 -0.0099147 0.017071 0.00197661 0.0346876 -0.0404258 0.0246299 0.0261015 -0.0397433 0.0304784 0.0101308 0.0438071 -0.00498954 -0.0119956 -0.0286523 0.0423913 -0.0144841 -0.0359324 -0.0235979 -0.0569776 -0.00563918 -0.0568143 0.000829427 -0.0306205 -0.0229464 0.00209813 0.0239466 0.0283293 -0.00460361 -0.0210659 -0.0363251 0.0156146 -0.030782 -0.0313458 0.0252725 -1.6169e-05 -0.0402279 0.0132626 -0.0202765 -0.0371436 0.0257504 0.0244477 -0.0255842 -0.0662261 -0.0303282 -0.00598266 0.0273328 -0.0298913 0.0173711 -0.0268312 0.0234145 -0.0350983 0.00676357 -0.0189617 -0.0121537 0.0395995 0.0204477 0.0285414 -0.0253128 -0.0230702 -0.00600321 -0.0149086 0.0365288 0.0304498 -0.00717639 0.0383547 0.0120096 0.000392798 -0.0139103 -0.00831254 0.0434769 -0.0502693 0.0507457 -0.0171001 -0.0127112 -0.0109605 -0.0136374 0.0283666 0.0209947 -0.00667012 -0.0529674 -0.0268574 0.0450782 0.065345 0.0280746 -0.0120525 -0.0599863 -0.0479557 -0.0528048 -0.0233518 -0.0421747 -0.0320325 0.0206836 -0.000651234 0.00537949 -0.00823412 0.029647 0.0346164 0.0307389 -0.0257188 -0.0395302 -0.00233533 0.0243086 -0.0137093 -0.0130629 -0.020194 -0.0423471 0.00407651 0.0399131 0.0436796 -0.0599786 -0.0151172 0.000768735 0.0298797 0.0102459 -0.0299464 0.00897146 0.0242485 -0.0409373 0.0533788 -0.0274642 0.0160456 0.0161328 0.00795803 0.0480779 -0.0241273 0.0489047 -0.0463145 0.057524 0.00959463 0.00896576 0.032774 -0.00669493 0.00146016 -0.0225237 -0.0120209 0.00672273 -0.0508339 -0.0405692 -0.0376833 0.0354677 0.0217347 -0.0233173 -0.0285541 0.0436395 0.0284049 0.0178215 0.0415771 0.0384585 0.0141434 0.0118134 0.000652528 0.0216706 -0.014952 0.0377545 -0.0464075 0.00939763 -0.0240461 -0.0326362 -0.0284785 0.0283903 -0.0376494 -0.00554887 0.00959079 -0.0512462 0.0070749 -0.00615203 0.0459896 0.00541606 -0.037326 0.0366182 -0.0432084 -0.0275013 0.010073 -0.0135973 0.0511024 0.0380503 0.0599855 0.0273699 -0.0158163 0.00685046 -0.0606135 -0.0409667 0.04858 -0.0235535 -0.0385458 -0.0215515 -0.0454121 0.0173091 0.0337439 -0.0431085 0.0261278 0.00547408 0.0196705 -0.042934 0.015051 -0.0280303 0.0332764 0.0281094 0.011439 0.0166377 0.0103198 0.0282412 0.0282049 -0.00566342 0.0352038 0.0462495 -0.0160343 0.0359321 -0.00800863 -0.00569673 0.0199104 -0.0342939 -0.0118181 0.00331949 0.0272205 -0.0254897 -0.010986 -0.0322228 0.0322099 -0.00392351 0.0352963 0.0305526 -0.0625348 0.0110529 0.00894716 -0.0387415 0.0197672 -0.0141404 0.014247 -0.0374796 0.0108472 0.00765605 -0.0110081 0.0359528 0.0175193 0.00218283 0.0135942 -0.0070871 -0.0114669 -0.00333294 -0.0705996 0.0116854 0.0361541 0.0601679 -0.000833447 0.00632166 -0.0305099 0.0337136 -0.0453882 -0.0352147 -0.0249091 -0.0512686 0.0393966 0.0393433 0.0518213 -0.0640703 0.0196868 -0.0465304 -0.0317037 -0.0264651 0.0551038 -0.0378703 0.0386284 -0.0405315 -0.0526854 0.0231262 -0.0125449 -0.00932869 -0.0114953 0.00632292 0.0374113 0.0359981 -0.00368855 -0.0233197 0.0127283 -0.0240512 -0.00326 0.032059 -0.0175837 -0.0277606 -0.0439821 -0.0349707 0.035755 0.027048 0.0342463 -0.0589902 0.0161072 0.0255721 0.0313172 -0.00536483 0.00451739 0.0238859 0.0329698 0.0088103 -0.0214308 -0.0327964 -0.0127768 0.0258708 -0.035734 -0.0499673 0.0504817 -0.0407433 -0.00101588 0.0417739 -0.0387246 -0.00812247 0.0286678 -0.000895934 -0.0286582 -0.0105643 0.0340764 -0.000378225 -0.0307064 0.00671996 0.042675 0.0421088 -0.0454168 0.00168593 -0.0200523 -0.0462479 0.000401024 0.0219369 -0.034726 0.0115883 0.00562461 0.0471328 0.0212044 0.00175941 0.0283476 0.00921803 0.000266109 0.0223002 0.023572 -0.020082 -0.00535376 0.0251172 0.0288167 0.0261491 0.0324299 -0.0262124 0.0342946 -0.0368029 0.0091393 -0.0449042 -0.00753634 -0.0439048 -0.0190548 0.0262394 -0.0607095 -0.03542 -0.0166105 0.0236118 0.0487602 -0.00748786 -0.0257174 -0.00572004 -0.060357 -0.00737558 0.0483346 0.05641 -0.0407983 0.00534714 -0.0508521 0.0528201 0.0336752 0.0471998 0.0168412 0.0284968 -0.023288 -0.0531611 0.0389356 0.0568178 -0.029897 0.0166335 0.0349484 -0.0376668 0.01673 -0.0608898 0.0527261 0.0146408 -0.0623166 0.0198419 -0.0244783 -0.0391055 0.00439061 0.0271961 -0.0141241 0.00268209 0.0282735 0.0283805 -0.00718044 0.0240597 -0.00103113 0.0446773 0.00316598 -0.0506364 0.0343485 -0.00278943 0.039703 0.00576818 -0.0173495 -0.0371567 -0.0454353 0.00414617 0.0339068 -0.0198688 -0.0096238 -0.0342605 -0.0154038 0.0358965 0.0104705 0.0394915 -0.0291811 0.0195834 -0.00106131 0.0129196 0.0178695 0.032693 0.0338065 0.0197013 -0.0315687 -0.0260953 0.0245268 -0.0168777 -0.00901481 -0.00666863 0.0212706 -0.00642667 -0.0239523 -0.0453814 -0.0503223 0.0269257 0.00966058 -0.019334 0.0601085 -0.0404377 -0.0423845 -0.00526873 0.0166615 -0.0259202 -0.0540986 0.021539 -0.0017911 -0.0380719 -0.0210006 0.022458 0.0189264 0.0123257 0.0270933 -0.0418227 -0.0239221 0.000642315 0.0152146 0.0334783 -0.0253957 -0.0327305 0.0092405 -0.00160807 0.0425148 0.0182523 0.046839 0.0155915 0.000561216 -0.0225776 0.0074567 0.0266425 -0.00949468 0.00787974 -0.0339437 -0.00624261 0.0194526 -0.014988 0.0123997 0.00312024 0.0458385 -0.0248969 0.00254874 -0.0112762 0.0280697 -0.00435877 0.0219266 -0.0606656 0.00862129 -0.0461784 0.0253303 0.0281541 0.0254344 -0.0247847 0.0146496 -0.050563 0.00893221 0.0337369 -0.0133931 9.90703e-05 -0.0338797 0.0314133 0.0133616 0.0512216 0.0239748 0.00571083 -0.0492078 -0.0348131 -0.00547532 -0.0383768 -0.0131506 0.0102517 0.0429089 0.00967272 0.021026 -0.0481177 0.0179235 -0.000295364 -0.0804815 -0.0364712 -0.0272293 0.0262278 -0.0112456 -0.00350047 0.0453947 -0.028826 -0.0433178 0.00697865 -0.00146564 0.00359214 0.0364118 -0.0544302 -0.0414914 -0.031154 0.0207159 0.0280189 0.00181623 0.00430188 -0.0181824 0.0326215 -0.0635159 0.00791918 0.00395573 0.0309784 0.0304364 -0.0260234 -0.0213047 -0.0244133 -0.000532429 0.0391505 0.00712487 -0.0348188 0.0403834 -0.0369648 0.0277208 -0.053369 0.000321836 -0.0156317 -0.0258629 -0.00458106 -0.0193354 0.00958576 -0.0251829 -0.0273959 0.00506958 0.0176396 0.0193125 -0.00310856 -0.0398316 -0.0301469 -0.029011 0.0105276 0.00618033 -0.00257669 0.0111898 -0.0169805 0.0401294 0.0246688 -0.0136748 -0.0151789 0.0214248 -0.0375524 -0.00630019 0.0303269 -0.00705559 -0.0411829 0.0306898 -0.0121043 -0.0536033 0.0282125 -0.0136372 -0.0237273 0.0195943 0.0039817 0.007543 -0.0308991 -0.0396126 0.00258678 -0.0259721 -0.00920341 -0.00228964 0.00231591 -0.000156454 -0.0156493 0.00756274 -0.00420985 -0.0371409 -0.0082961 0.0457947 -0.00533555 -0.0303714 0.0204501 0.0233996 0.0327943 0.0245114 -0.0379276 -0.0389626 0.0178077 -0.0163581 -0.0222312 -0.02958 -0.0215175 -0.0439341 -0.0414726 0.0233704 -0.0133518 0.00350639 0.0349053 0.014218 -0.0187282 0.0321084 0.00670776 -0.0114391 0.00556307 -0.0249972 -0.0402262 0.0332237 -0.0433698 0.0259203 -0.0433869 -0.00759446 0.0197633 -0.0421604 -0.00475892 -0.00486938 0.0305286 -0.0188924 0.0382825 0.0431226 0.0335225 -0.000248885 -0.016691 0.00750371 -0.0292851 -0.0400175 -0.0349245 0.0285161 0.00633332 0.013492 -0.0216077 -0.0205206 0.0426179 -0.0217959 -0.0142659 -0.0402822 0.0139162 0.0349513 0.0326529 -0.0333554 0.023821 0.0213809 -0.0315187 -0.0363634 -0.0182127 0.0327161 -0.00972228 -0.0219757 -0.0210246 -0.0105568 -0.0147565 0.0164148 0.0251205 -0.03855 0.00328965 0.0172875 -0.0357931 -0.0123081 -0.0100985 -0.0272991 0.0422386 0.0209637 0.010714 -0.0428099 0.0216901 -0.0155894 -0.0215622 0.0345478 -0.0216244 -0.0234059 0.00340644 -0.0193966 0.0146853 0.00293603 -0.0263541 -0.0155588 0.00914329 0.00525499 0.0119973 0.0295152 -0.0397545 0.000169942 -0.0410112 -0.0148075 -0.0203102 -0.0149446 0.0169884 -0.0220126 0.0340409 -0.00585187 0.0149885 0.0290223 0.060325 -0.013224 0.000361436 0.0256228 -0.0281969 -0.033622 -0.0253882 -0.0155262 0.00036528 0.0154399 -0.0301642 -0.00898864 0.0295851 -0.0288428 -0.00782845 0.0355581 -0.0338145 0.00488468 -0.0124494 -0.0107485 0.000268938 -0.0141284 -0.024725 -0.0278509 -0.0125988 -0.0182769 0.0443529 0.0299435 0.0225023 -0.00537092 0.00354553 0.0184866 0.0219701 -0.0452853 0.0204334 -0.0324655 0.00336066 0.0353683 -0.0351584 0.0016025 0.0152081 -0.0259131 -0.0513972 -0.0287445 0.00963881 0.0233482 -0.0125164 0.00880747 0.0326467 0.0199732 0.00840669 0.0273142 -0.0282342 0.000691515 0.0282949 0.00964958 0.01015 0.0228277 0.00196666 -0.0318439 0.02308 0.00526979 -0.0220788 0.0378697 0.0314306 -0.0060905 0.0235211 0.0138139 -0.0360823 -0.0249542 -0.016895 0.00310543 0.0284151 0.0183202 0.024116 -0.00988041 0.0367987 0.0325265 -0.0105042 0.034069 -0.0133205 0.0117282 0.00611011 -0.0195113 0.0217238 0.000960173 0.00223547 0.0203324 0.0268433 0.0211194 -0.0326533 0.0350607 -0.020221 0.0104922 0.00815203 0.0134585 -0.0113633 0.00710954 0.035443 0.00513624 -0.0328657 -0.0291897 -0.00622805 0.0157758 -0.000464236 0.0205225 -0.014436 -0.0163568 -0.00414709 0.0529133 0.0257365 0.012703 -0.0456434 -0.0146963 -0.0103126 -0.0121645 0.031497 -0.0367478 0.0570199 -0.0301323 0.0180518 0.0339163 -0.0435874 -0.00519449 0.0465178 0.0301531 0.0333383 0.040129 -0.0101874 0.00328224 -0.0455516 0.0190624 0.0443538 -0.0117737 -0.0143836 0.0321191 0.0178362 0.0351026 0.0282878 -0.0203717 -0.00451929 0.028044 -0.00691643 0.0390584 0.0180776 0.025805 0.0027424 -0.0367666 -0.0260151 -0.0180383 0.0138915 -0.0273436 -0.00346383 -0.0317903 -0.0376202 0.0460576 0.0158549 -0.0202275 0.043218 0.0422298 0.026955 0.0045947 0.0296816 0.00778771 -0.0138318 -0.0373614 -0.0332472 0.0402642 0.0317439 0.00213067 0.00120067 0.00686557 0.00285428 -0.0281713 -0.0309353 -0.00342952 -0.0134081 -0.0231907 -0.0156624 0.0427523 -0.0177241 -0.0236794 -0.0214948 -0.0265795 0.0371368 -0.0219977 0.0266251 0.00470991 -0.00768205 0.0201971 0.0194113 -0.0289703 -0.0237468 -0.0224712 0.00825976 0.0139538 -0.00429846 0.0152204 0.0178497 0.0246872 -0.0173694 -0.0357014 -0.0312494 0.0113851 0.00753589 -0.0245431 0.0106173 0.0186291 0.0341656 -0.0135339 -0.0247525 -0.027917 0.00939368 0.0058808 0.0396566 0.0340437 -0.0158639 -0.0135613 -0.0276463 0.0264064 -0.0113798 -0.0367541 -0.0191384 -0.00231556 -0.00942229 0.0281167 0.0150718 -0.0461878 0.0318313 -0.0194008 0.0106087 -0.0377317 -0.015445 -0.0303135 -0.00372975 0.00565882 0.00884524 -0.0543514 -0.00813428 0.0140089 0.0113695 -0.0280661 0.0257314 0.0229075 0.0280927 -0.031957 -0.0071511 0.0159406 -0.0182893 -0.0213669 0.00217546 0.00153021 -0.00433621 0.0238317 0.038539 0.00902068 -0.00445481 -0.0163876 0.0308738 0.022098 -0.0116975 -0.0107068 -0.0246729 -0.0071798 0.0474182 -0.00706219 -0.0179804 -0.0337345 -0.00328197 0.0037828 0.039004 0.0121118 -0.0298474 -0.0377995 -0.0102443 0.0251521 0.000471603 -0.0211972 -0.0238218 -0.0150939 -0.0295044 -0.021066 0.0160238 0.00463813 0.034838 0.0092245 -0.0408198 0.0458958 -0.00601215 0.0184406 0.0057473 0.00848095 0.0297991 0.0443409 -0.0110368 0.0346217 0.00891398 0.00472764 0.0176465 0.0211782 0.0398104 0.00707506 -0.0506476 -0.0109763 -0.00922774 0.0484599 -0.0222452 -0.0488901 -0.0188468 -0.00347466 -0.00165035 0.00216423 -0.00600533 0.0140942 0.0198897 0.0366819 0.00548418 -0.0113457 0.0106567 0.0388328 0.0131682 -0.0151082 0.00588557 0.0312666 0.0407994 -0.0174206 0.00615627 -0.0190183 0.0165389 -0.00153588 0.0143202 0.00109589 -0.00248346 -0.0127958 0.000234691 -0.0228568 0.023212 -0.0299615 -0.0152488 0.016343 -0.0476999 -0.00976639 -0.0317866 -0.0423798 -0.0355973 0.0271843 -0.00849027 -0.000283233 -0.0151112 -0.0362939 0.000352368 0.0106114 0.0278221 -0.000686822 -0.0159647 0.0353386 0.00922063 0.0436039 0.0015359 -0.0366721 0.0315403 -0.0205876 0.038549 -0.0138524 -0.00565564 0.0276814 0.0344909 0.0090638 -0.0119173 -0.0284951 0.0344382 -0.00533348 -0.0237889 0.0257098 0.0308308 -0.00688061 -0.0369245 0.0465661 0.0172942 -0.0143304 0.0128491 0.0200689 0.0288906 0.0353414 0.0293503 0.0505387 -0.0360342 0.042866 0.0274776 -0.0232049 0.00341739 -0.0210539 0.0271343 0.024369 -0.0111224 0.0216878 -0.000120693 0.00727902 0.0279256 0.033575 0.0144361 0.0236764 0.0127722 -0.00896301 -0.00279465 0.0155013 0.0124355 0.04962 -0.0314167 0.0191579 0.0181174 0.0159374 -0.00348651 -0.0284639 -0.0222971 0.0376973 0.0394499 0.00956269 0.00202626 -0.00750993 0.0182188 -0.0114381 -0.00504322 -0.0149393 0.0181684 -0.00983858 0.028277 -0.00724607 0.008962 -0.0120772 0.0564904 0.00573234 0.0160258 0.00124729 -0.042946 -0.0343223 -0.0198026 0.00176447 -0.0295735 0.0391749 -0.0138004 -0.0290406 -0.0109111 0.0197996 -0.00360605 -0.00126017 0.023807 -0.0173675 0.0261819 -0.000499265 0.0560016 0.0329423 0.0278788 0.000887581 0.0113318 0.0307885 9.78379e-05 0.03378 -0.00846234 -0.00463428 -0.0252451 0.00583463 -0.0242932 0.0214517 -0.0190225 0.00231186 -0.0321012 -0.00212365 -0.018117 -0.00264554 -0.000899271 -0.0143546 0.000971815 -0.00679477 0.0358435 -0.0247079 0.00926275 0.0480704 -0.0121661 -0.0278119 -0.02552 0.00775129 0.0102564 0.0271234 -0.0218892 -0.030711 -0.00770333 -0.0339649 0.00710426 0.0444906 -0.0302926 0.0308531 0.00569897 -0.0246691 -0.00383546 0.000985472 0.0284078 -0.0262876 -0.0217437 0.024026 -0.0155104 0.0138299 -0.0415543 0.00179504 0.00165262 0.0205613 -0.0155726 0.0201099 0.0173068 -0.0208157 0.0277161 0.0163875 0.00447688 -0.0221956 -0.00115083 0.0260315 -0.0445798 -0.00675635 -0.0120436 0.0461736 -0.00865621 0.0120313 0.000145311 -0.0158151 0.00190578 0.047052 0.0281482 -0.022496 0.00773779 0.0313937 0.01286 -0.0226503 0.0312175 -0.00929514 0.00448078 0.00393217 0.0450692 -0.0236419 -0.0500692 -0.0394368 -0.0208914 -0.0334792 -0.0257977 -0.0395886 0.019056 0.00267689 0.017365 -0.0487296 0.00419967 0.0130017 -0.028599 0.00386924 0.0325479 0.0378628 -0.0254172 -0.0391165 0.034271 0.0288975 -0.00566887 -0.00651423 -0.0401529 0.0177257 0.00293032 0.0272535 0.0300715 0.0353862 0.0191853 0.0034394 -0.0241194 -0.0218393 0.017571 -0.0224695 0.0378965 -0.0255748 -0.0317753 0.00641604 0.0198065 -0.0162028 0.0321977 -0.0229507 -0.0203311 -0.0239928 0.0191696 0.0186661 0.0349901 -0.0158619 0.00585552 0.0395513 0.0249391 0.00258503 0.0279132 0.0207982 0.0189499 0.0091054 0.0250962 -0.0101633 0.0200798 -0.0287274 0.00655409 0.0268439 0.00399527 0.0109768 0.0395321 0.0212355 -0.00107821 -0.0261655 -0.0149643 0.0311734 0.00236481 0.0366767 0.0370071 -0.0194496 0.0195783 -0.0125627 -0.0107267 0.00624766 -0.0289088 0.00553301 -0.0283611 0.0353023 0.0321031 0.041347 -0.00727149 0.0334486 0.0111001 -0.0103141 0.0171403 -0.0338306 0.00328499 0.0174415 -0.0206826 0.0234601 -0.0186054 0.0196597 -0.0218363 -0.0524252 -0.0037212 -0.023473 0.00382243 0.00769601 0.0210441 0.0508543 0.00955395 0.0439064 -0.00241482 0.0313981 0.00504017 -0.0349408 0.0164711 0.0185538 0.0404223 0.0195285 -0.0177164 -0.0203691 -0.0124944 -0.00693541 -0.00766786 0.0021205 -0.0164938 -0.00708199 0.0117092 0.0229402 0.0289052 -0.0283112 -0.0472932 -0.0140156 -0.0300221 -0.0283261 -0.0397078 0.034869 -0.0197026 -0.0326161 0.0254179 0.0461172 0.035458 -0.00515414 -0.0141569 0.00856046 -0.0297792 -0.0218259 -0.0219659 0.0169842 -0.00532781 -0.0309793 -0.0387685 -0.0145818 0.00773551 0.0332694 -0.00669743 0.0139707 -0.00761854 0.013577 0.0308453 -0.00162789 0.00239117 0.0163254 0.0295009 -0.0232824 -0.036679 -0.0290975 0.0408871 -0.0148405 0.046739 -0.0293228 -0.0363829 -0.0226656 0.010402 0.00966002 -0.000107626 0.0346279 0.0125408 -0.00723573 0.0150472 0.00701566 0.00792191 -0.0203475 0.0202043 0.00343148 -0.00237961 0.0417235 -0.0167084 0.0423073 -0.0253629 0.0279872 0.0264556 0.0393486 -0.00969446 -0.0115416 -0.0204357 0.00664272 0.0434805 0.000140176 0.017238 -0.0125981 -0.0171439 0.0117997 0.0289655 0.0270458 -0.00586036 0.000764288 -0.0415135 -0.0220648 0.0268274 -0.0104184 0.0558412 0.0343483 0.0104118 -0.0274698 0.0457763 0.0232646 0.0433284 -0.0331299 -0.0178481 -0.0260731 -0.0109169 -0.0140812 0.0279033 -0.00802456 0.0258315 -0.0188265 -0.0382796 -0.0378072 -0.0304871 -0.00713642 -0.00612575 -0.0196965 -0.00556448 -0.0178301 -0.0150922 0.00616 -0.0422027 0.0080857 -0.0292664 0.010569 -0.021391 -0.0270603 0.0426659 -0.0069229 -0.0277877 0.00449979 0.030802 -0.0435994 -0.0407558 -0.032644 0.0381114 0.0168785 -0.00581678 0.0416056 -0.0218909 0.0239415 0.0302079 0.0263701 0.0019416 0.0110436 -0.00663246 0.0392249 -0.0292176 0.0474068 -0.025904 0.0319065 0.0213124 -0.0226269 0.0246369 0.00255747 0.0282268 -0.0168922 0.0247605 -0.038745 -0.0113532 0.00233797 -0.0119564 0.0377945 0.0441037 -0.0102628 0.00926281 -0.0107994 0.039585 0.0142067 0.00501227 0.0393742 -0.00756407 0.047039 -0.0306676 0.0197932 -0.0144613 -0.0121314 0.00022411 0.0106372 -0.000931438 -0.00359108 0.0447342 0.0397751 -0.0267819 0.0273251 -0.0107012 0.0241319 0.0286667 0.016223 -0.0339829 -0.0340647 0.02076 0.00463827 -0.0101473 -0.0226361 0.0339524 0.0280565 -0.00394521 -0.0290492 -0.0223583 0.000867311 0.0451313 -0.0162571 -0.00964447 -0.0322274 -0.00970988 0.0202937 -0.0195787 -0.00668756 -0.0113072 0.00978701 -0.0197304 -0.0381779 0.0324264 0.0317966 -0.0384329 -0.0405343 0.00623666 -0.02281 -0.0271443 -0.0410833 0.0454176 0.0114464 -0.04286 0.050985 -0.00914984 -0.0217075 0.0301959 0.010106 -0.0494583 -0.0307959 0.0550285 0.00447485 -0.00410926 0.0276634 0.0266037 -0.0210671 0.026113 0.0254478 -0.0121263 0.00585151 -0.0117069 0.00861732 -0.00605827 0.012576 -0.0340047 0.033338 0.0129529 0.0149321 -0.0101192 0.000995881 0.00711262 -0.0467433 0.021854 0.0124795 -0.0403463 -0.00475651 -0.0145413 -0.023569 -0.0498587 -0.0161108 -0.00594429 0.0295595 -0.0203982 -0.00377267 -0.0327636 0.0148642 0.00237528 -0.0206183 0.0361348 -0.0227616 0.0354133 -0.0464201 0.0315094 -0.000554226 -0.0330452 0.0257739 -0.0124688 0.00842943 -0.0485442 0.0330085 0.00890235 0.0492303 -0.0324326 -0.00509615 -0.0383513 0.00359753 -0.0146341 0.0207834 -0.0186556 0.0306264 0.0139626 0.0387652 -0.0359662 -0.0383309 0.0193124 -0.0125278 0.0128024 -0.0327549 -0.0270546 0.00991559 -0.00694863 -0.0261837 -0.0105134 0.0290011 0.0288915 -0.0244855 -0.0284891 -0.0172358 -0.0411759 0.0184505 -0.024584 -0.019863 0.0231596 0.0312008 -0.0291045 -0.0243945 0.0107974 0.0129137 -0.0496535 0.00194959 -0.00626094 0.010309 -0.0433217 -0.0206349 -0.0104525 0.0417172 -0.0136922 0.00853198 0.00884634 -0.0123449 -0.0266981 -0.0301472 0.0227196 0.01835 0.0462685 0.00676416 0.00514876 -0.0146728 -0.00473602 -0.0179896 0.000240648 -0.00866432 0.0326475 -0.0251088 -0.0230678 -0.0308613 0.0322733 -0.0217568 0.0309203 0.0160524 -0.0156908 0.0292886 -0.0195692 -0.0123932 -0.00185283 -0.0288399 0.0010662 -0.00693711 0.0267336 0.0179289 0.00161607 0.0458598 -0.035054 0.0386213 0.0146571 -0.00560835 0.0183579 0.00628929 -0.0272173 -0.0238908 0.0059572 -0.0390531 0.0189474 -0.00242416 -0.0171857 0.00767201 -0.00911153 0.0216445 0.0160933 -0.00423722 0.0360541 0.0262477 0.0276486 0.0106113 0.00610884 -0.0140558 0.0127531 0.0177942 0.030029 0.00995013 -0.0318472 -0.0289711 -0.00340199 -0.0272324 0.00492518 0.0585734 0.0362538 -0.000425775 0.0484871 -0.0441081 -0.0390662 0.0376443 0.0363228 -0.0214672 0.0183627 0.0338773 -0.0560267 0.0399149 0.0187754 -0.0111733 -0.0282749 0.0344778 0.0224818 -0.03346 0.0287959 0.0283716 0.0497992 0.0249718 0.0388664 -0.0275827 -0.0208984 0.00376184 0.0263719 0.0207824 -0.00759825 0.0189833 -0.00894759 -0.00602666 0.00530006 -0.0514156 -0.0462537 -0.0335228 0.0366814 -0.0481394 0.0133858 0.0125082 -0.0450932 -0.0255147 -0.0288582 -0.00451247 -0.0415733 -0.0222218 0.03642 0.00809759 -0.0309694 -0.030676 -0.00993536 -0.00786251 -0.0465352 -0.00119771 -0.00210923 -0.0098192 0.00779284 0.00380193 0.0269348 -0.00881939 0.0232988 0.00403706 -0.0382474 0.0185565 -0.0383049 -0.00397467 0.0361756 0.021695 -0.0252864 -0.00206085 -0.00980952 0.00782958 -0.0297594 0.0207061 0.042653 0.0482315 -0.00192659 0.0350077 0.0286127 0.00343889 0.0235329 -0.00581691 -0.00305989 0.0183152 -0.0419907 0.0326279 0.0191192 -0.0523819 -0.0129001 0.0160729 0.00624026 -0.0246155 -0.0490042 -0.022683 0.0390519 -0.0253514 -0.00775292 0.0161455 -0.00882483 -0.0209471 -0.0467058 0.0226422 -0.0240948 0.000495057 -0.0326094 -0.0141588 -0.00693717 -0.0219519 -0.0445324 -0.0316516 0.0440359 -0.0428992 0.0156801 -0.0283582 0.0333731 0.0210292 0.0364814 0.0232726 0.0130117 0.00272393 0.023389 0.0139995 0.0110248 0.0100962 -0.0266116 0.0279941 0.0448999 0.0243097 -0.0251906 -0.0269627 -0.0410136 0.00522061 0.0386274 -0.0423269 0.0321693 0.0353853 0.0184129 0.0419962 0.00869516 -0.0160958 0.00944281 -0.0190649 0.00184991 0.0329082 0.011746 -0.00388659 -0.00814063 0.0607734 -0.0106595 -0.008879 0.00327135 -0.0170475 0.0201404 -0.0374415 -0.0116063 0.00848602 -0.0238572 0.0290085 -0.0163353 0.01553 -0.0144905 0.0392699 0.0162339 -0.020874 -0.012619 -0.0299624 -0.0312649 -0.00607463 -0.0364102 -0.0188947 -0.0365989 0.00942124 -0.0172484 -0.0464341 0.0436966 0.0219896 -0.0520046 -0.010233 -0.0144917 0.0128896 0.0141567 0.0511814 -0.032941 -0.00727878 0.0470117 0.0326593 -0.0218839 -0.0209964 -0.0120078 0.01222 -0.0190409 -0.0463827 0.00792901 -0.0161835 0.0200545 0.0319023 0.0180465 -0.0114264 0.006491 -0.0361439 0.0311057 -0.00761091 0.0617223 -0.0199358 -0.0234934 -0.00309526 -0.0199522 0.0507807 -0.0273157 -0.0106662 0.024204 0.00220645 -0.0102 0.0337019 0.0341853 0.0112589 -0.00648752 0.00774575 0.0193052 -0.0276613 0.0123817 0.0350922 0.0196386 -0.00543427 -0.0284961 0.0118382 0.00647102 -0.0114328 -0.0270133 0.0250082 -0.00446882 -0.00684139 0.0233963 0.0133827 -0.0512438 0.00792819 0.0235047 0.00658824 -0.00428773 0.0284721 0.0176501 0.0438801 -0.0165246 -0.0541702 0.00875539 0.0415469 -0.0147346 -0.0260865 0.00805234 0.00809728 -7.87037e-05 -0.0137933 -0.00361383 -0.00974167 -0.0237652 -0.0141271 -0.0422982 0.0252216 -0.0220866 -0.0530519 0.014712 0.00162485 -0.0300094 -0.0148346 -0.00380406 0.00560964 0.0271048 -0.0393736 0.021153 -0.0312456 0.0516485 0.0287958 -0.0190585 0.0113704 -0.0160218 -0.00736051 -0.0154981 -0.0390578 0.0333176 0.0438882 0.0359032 -0.0027038 0.0114395 0.00499097 0.030465 -0.0461074 -0.0535464 -0.0147581 0.0392302 0.0483085 -0.041755 -0.0224291 0.0485126 -0.0157807 -0.0216568 -0.0176958 0.0294637 -0.0323092 -0.00868443 -0.0494656 -0.0261323 0.0134379 0.0144581 -0.0324492 0.0085768 -0.0282639 0.00513849 0.0486701 -0.0369792 0.0434299 -0.0211987 -0.0307608 -0.0308327 -0.0161344 -0.0365218 0.0118859 -0.0237371 0.0325862 0.000963428 -0.0256681 0.000786246 0.00954034 0.0580082 -0.0374813 0.0172553 0.00125545 0.0097501 -0.028137 0.00796708 -0.00106774 -0.0345579 -0.0335856 0.0167 0.00871198 -0.00492336 -0.0070499 -0.0216013 0.0283593 0.0229821 -0.044784 -0.0348879 -0.0106764 -0.0195005 -0.0118568 0.0137802 -0.0200368 0.0273202 -0.0208298 -0.0122333 0.0164073 0.00516856 0.00446927 -0.00155362 -0.0169902 0.0134886 0.0267086 0.0178413 -0.0447556 -0.0115463 -0.0147838 -0.0136409 -0.00332585 0.0330001 -0.0324922 0.0214009 0.0264108 0.032397 0.0133049 -0.0268184 0.0181272 0.0235661 -0.020986 -0.0424027 0.0286325 -0.0330916 -0.0461072 -0.0130222 -0.0135504 0.0374361 0.0320567 0.0302289 0.0357396 -0.0466697 0.0263655 0.0240916 0.05785 -0.0263421 -0.0230708 0.0117751 -0.0194598 -0.0326106 0.0218422 0.0302435 -0.0216513 -0.0484498 0.0449193 0.0101459 0.0430736 0.0425 -0.0353057 0.0103488 0.0109389 -0.0492286 -0.00802937 -0.0216165 0.0167245 -0.00544754 -0.00429012 0.0383302 0.0157777 -0.0634638 0.0374743 0.0194324 -0.00650239 -0.00950837 0.0476709 0.0350292 -0.0114583 0.0350491 0.00274927 -0.00118839 0.0189968 -0.00758696 0.0345027 -0.00330856 0.0167118 0.0455991 0.0256843 -0.00448579 -0.00654759 0.0288371 -0.0466636 0.040192 0.0224881 0.0106306 0.022841 0.0149408 0.0156402 0.0432613 0.0274292 -0.0274404 0.0121045 0.03483 -0.0108597 0.0327304 -0.0194634 0.00493123 0.0257366 -0.00823886 -0.0182864 0.0133988 -0.0377017 0.00431691 0.048479 -0.0324306 -0.0187414 -0.0610373 -0.0206492 0.00973014 -0.00725801 0.0408312 0.000933439 -0.0354203 0.00760718 -0.00860578 -0.0495374 0.012762 0.0319713 0.00988944 0.049436 -0.00731166 -0.0111472 0.0132089 0.00731696 -0.00349456 0.0221412 0.0319852 0.00414924 -0.0373189 -0.0337333 -0.0140286 -0.0115661 0.0208516 -0.0571076 0.0383952 0.0201205 0.00447125 -0.0161127 0.00261649 -0.0303283 0.0217729 -0.0273878 -0.037379 -0.0208416 -0.0202477 -0.0168423 0.0157908 -0.0158377 0.0232226 0.0556983 0.0115213 0.0474898 0.00735117 -0.0227953 -0.0449808 0.00568176 -0.0225004 0.0107685 -0.0204929 -0.0129815 -0.0157696 -0.0148113 0.0308987 0.0055576 -0.0258341 0.0171729 -0.0107166 -0.0225795 -0.0211729 0.0395035 0.0407855 -0.00220406 -0.0127047 0.03553 -0.045011 0.0398242 -0.0367578 0.00861242 -0.0325277 0.0473368 0.0217961 0.00829243 0.0299853 -0.0517248 0.00719749 0.0112309 0.0210741 0.00565082 0.00290441 -0.035744 -0.0262952 -0.0399887 0.0400631 0.0297743 -0.04574 0.00275185 -0.0100313 -0.0379495 0.0166694 -0.00211949 0.0264732 -0.0188263 -0.0151933 -0.0438627 0.0343881 -0.0230115 -0.0215551 -0.0466295 0.0442488 0.00103364 -0.0312335 -0.0199059 0.0497684 0.0521713 -0.00655775 -0.0163139 -0.0152722 0.0188147 -0.0073657 0.0444863 -0.00956149 -0.0446037 -0.00728617 0.0375353 -0.0280993 0.0131133 0.0210413 0.0293852 0.0166083 -0.011529 -0.0206286 0.0122188 0.0523771 0.0206858 -0.0255338 -0.0347061 -0.0339844 0.0106762 0.000896082 -0.0237388 0.00539455 -0.0196848 -0.0132558 -0.00138795 0.0429454 0.037124 -0.000221507 0.0420211 0.0365489 0.0367417 -0.0449399 0.0122233 0.0529393 0.0311208 0.0472212 0.0192687 -0.0268243 -0.00637856 0.0439035 -0.0145094 0.053356 0.0313746 -0.0116282 0.0476959 -0.00485088 -0.00934257 0.0161525 0.0352616 -0.0159466 -0.0185233 0.0184626 -0.0310807 0.0126164 -0.00895297 0.00972566 -0.03119 -0.00490394 0.0292642 0.0400713 -0.00879471 0.0254182 0.0319877 0.033644 -0.0536752 -0.0114813 0.0558091 0.0463014 -0.0288245 -0.0527932 -0.00918625 0.0143592 -0.0422276 0.0253291 -0.00753361 -0.00591988 0.0280323 0.0327057 -0.0344357 -0.0121977 0.0392108 0.0584024 -0.0259376 0.048659 -0.00172957 0.0309953 -0.0132347 0.0274003 -0.0256901 -0.0340093 -0.0418845 -0.0173414 -0.0205225 0.025662 0.00754649 0.0219 -0.00179307 -0.011718 -0.0287866 0.00547857 0.00416888 -0.0254771 0.0188486 0.0290421 -0.0540506 -0.00970943 -6.43262e-05 0.0387066 -0.0019432 -0.00289031 0.0119814 0.0338518 0.00454012 0.0216757 -0.0083703 -0.00222038 -0.0530809 -0.0342033 -0.0024856 -0.04151 0.0393869 0.0285669 -0.0281949 0.0503631 0.0304644 -0.0047783 0.0213029 0.0383601 -0.00841388 0.0195929 0.018825 -0.0281757 -0.0348849 0.00954355 0.00763762 -0.0151294 0.0202102 0.0200321 0.0209486 -0.0367293 -0.00185672 -0.0119035 -0.0268353 -0.00286774 -0.0365712 0.0115551 0.0137918 -0.0137794 -0.00804488 0.037188 0.0279392 -0.0663658 -0.00372165 0.00937506 -0.0158106 -0.0344479 -0.0295825 -0.0339598 0.00190644 -0.0148411 0.00122096 0.0346677 -0.00585426 -0.020822 0.00581796 -0.0185565 0.0165745 0.00996424 0.00668349 0.00344094 0.0609618 0.0451757 -0.0133573 0.0014534 -0.0175998 -0.0219004 0.0230734 0.0304305 0.032031 0.00819296 0.0523735 -0.0271215 0.0415246 -0.0152784 -0.0331615 0.0121245 -0.0167662 -0.00494884 0.0576037 -0.0238341 0.00445131 0.0116405 -0.00203604 0.00968157 0.0212821 -0.0314652 -0.0150835 0.0428393 -0.0442056 0.049604 0.0283224 -0.0250749 0.0329437 0.037193 0.0106261 -0.0288169 0.0221673 -0.0158107 0.0286188 0.0445736 -0.0254713 -0.0215475 0.0451145 0.0491868 0.035122 0.0445649 0.0359404 -0.0291525 -0.0156136 -0.0269283 0.0159055 0.0207345 0.0146684 -0.0270859 0.0127456 -0.0149095 0.00838795 0.0226815 -0.0271672 0.0119666 -0.0363135 0.0277616 0.0293318 0.00257931 0.0382659 0.0125309 0.0139491 -0.0308186 0.00534528 -0.00836736 0.0353105 0.0595538 0.036131 -0.0420167 -0.0208749 0.00993829 0.0445226 -0.0224908 -0.0176039 0.012387 0.0236564 0.0197899 -0.0196902 -0.00357628 -0.00270155 -0.0155537 0.0352275 0.0281783 -0.0250283 -0.0535833 0.0149543 -0.00704432 -0.025275 0.03713 -0.0170061 -0.0442073 -0.0179546 -0.0391992 -0.0204116 0.0299958 0.00334342 0.0159051 0.00513709 0.0444948 0.0238282 -0.0257195 -0.0134718 -0.00358156 0.0545304 0.014439 -0.00322967 0.016645 0.0254132 -0.0510882 -0.0486189 0.0087009 0.0331029 -0.0390755 -0.00917539 0.0299996 0.0289534 0.0052225 0.0181898 0.0112114 0.0140315 -0.0342173 0.00529024 0.0241282 -0.0137535 0.0276667 -0.0277243 -1.92134e-05 -0.0291709 -0.0385831 -0.053705 0.0255547 0.0481089 0.00177606 0.0337139 0.0359586 -0.019455 0.0324023 -0.0251693 0.0426894 -0.0323453 0.0141294 -0.0489667 0.054029 -0.0158069 0.0725312 0.0147333 0.0141762 0.0170109 0.0390487 0.0289427 0.030018 -0.00233404 -0.0324342 0.0110524 -0.0296899 0.0177968 -0.00801654 -0.0271474 0.0429453 0.0260461 0.0288472 -0.00692829 -0.0211338 0.0227126 -0.0232121 -0.020342 -0.0156944 0.0138767 0.0077915 0.0438773 0.0501923 0.0164436 -0.000964926 0.0214342 0.0562335 -0.0160203 -0.0283413 0.00665957 0.0108959 -0.0125843 -0.0347595 0.0117304 0.0560903 -0.02403 -0.01259 0.000773956 -0.0283645 0.0337319 0.0237401 0.0359062 0.0355664 0.0105163 -0.0136189 0.0108826 -0.0220596 -0.0105007 -0.0365839 -0.0202096 -0.0242743 -0.0374348 0.0397545 -0.0156986 -0.0273189 -0.00608193 -0.0261295 -0.0143788 -0.0183359 0.00214157 0.0134461 -0.0150069 0.00741477 -0.0153473 0.0080258 -0.0318259 -0.00691562 0.0122469 -0.0111148 -0.0244222 -0.0288295 -0.0205003 -0.00444774 0.0240839 -0.00710093 -0.00169849 -0.00921728 0.00259452 0.0176165 0.0097418 -0.0433353 0.00110456 0.00356066 0.0114712 -0.0423967 0.0162757 0.0179601 -0.0199061 -0.0323031 -0.0393715 -0.025063 0.0198358 -0.00819528 -0.0426595 -0.024229 -0.00344907 0.021468 0.0168268 0.0513787 0.0252944 -0.0207367 -0.0176984 -0.0197385 -0.0107342 0.00539939 0.0116934 0.0184533 -0.0309272 0.0134737 0.0189984 -0.0100777 -0.00688427 0.0139709 -0.0147316 0.00657272 0.00485529 -0.00702482 -0.0222356 0.0345061 0.0126836 -0.0280539 -0.0063229 0.047557 0.0203532 0.0126346 0.0200868 0.0486296 -0.0194473 -0.0342982 0.0441083 0.0214981 0.0125583 0.0192827 0.0517765 0.0440055 -0.0351964 -0.00142429 0.0239506 0.0247274 0.0156692 -0.029887 0.0394094 -0.0161817 8.62642e-05 0.0297609 -0.00114884 0.0074115 0.0172829 0.00763398 -0.0361804 -0.00168239 -0.0201816 0.0275173 -0.0372557 0.00406426 -0.0359604 0.0106532 -0.046082 -0.0458261 0.0100071 0.049399 0.0124317 -0.0519256 0.0306611 0.00662352 0.0137345 0.0217448 -0.00907288 -0.0442852 -0.0200787 0.00643989 0.0181615 -0.02597 0.0305399 -0.0447004 0.00978741 -0.0448732 -0.0028038 0.0319487 -0.0224607 0.0169991 -0.00572533 -0.00906321 0.00756704 -0.0177577 0.00111091 -0.0399521 -0.00710439 -0.0363894 0.0438906 0.0305659 -0.00563556 -0.00424274 0.0223505 0.000322154 -0.000621919 0.015779 0.01557 0.0113969 -0.0275009 0.000463903 -0.0178172 0.00180435 -0.0237777 -0.000696813 -0.011477 0.0013595 0.0520445 -0.0075212 0.0212002 0.012655 -0.000682829 -0.0280357 -0.0242424 0.0113569 0.0419934 0.0174985 0.0189983 -0.0438105 0.0284595 0.0265231 0.0191713 -0.00220023 -0.0499401 0.03811 0.017018 -0.000364936 -0.0247248 9.99759e-05 -0.0180518 0.000949371 -0.0159448 0.0326124 -0.0270449 0.0416352 -0.0196269 0.0454472 -0.0286865 -0.00216605 0.0421494 0.0371929 -0.0389551 0.00411657 -0.00759529 0.0266039 -0.0293611 0.0268978 0.0448092 -0.0119856 -0.0421009 -0.0207961 -0.029728 0.0244365 0.0120169 0.0328684 0.0415613 0.013056 -0.0119209 0.0192886 -0.0261845 0.0356564 0.0227865 -0.00757517 -0.0498642 -0.0350997 -0.0171903 -0.0232525 0.0045356 -0.00706826 -0.0442283 0.00534355 0.0368599 0.0210952 0.00388047 0.0505059 -0.0145886 0.00115946 -0.0487911 0.0413007 0.0119547 -0.00359624 0.0096323 -0.0238276 -0.0276279 0.068946 -0.011862 -0.00201341 -0.0359485 -0.0156121 -0.0273471 0.0364423 0.0382793 0.0353307 -0.0431347 0.0163827 0.0112849 0.0270948 -0.0129856 0.0146028 -0.0269709 -0.0212135 -0.0147308 -0.00738974 0.0492307 0.0335255 -0.000336517 -0.0246133 0.0421421 -0.0147666 -0.0239258 -0.0118497 0.00330888 -0.0243025 -0.00293778 -0.026086 -0.014869 0.0160329 0.00222711 0.0112818 -0.0165145 -0.00972078 -0.0387652 -0.00664261 0.0121816 0.00203297 -0.0163271 0.00968253 -7.57838e-05 0.0623775 -0.013956 -0.0253374 -0.00459029 0.0151563 -0.0326459 0.0459664 -0.0557516 0.0270845 -0.0022133 -0.0481541 0.033867 -0.0386638 0.00754706 0.0249917 -0.0249971 0.0421659 0.00729641 -0.0307531 -0.0145332 -0.0474068 0.0235577 -0.030025 0.04792 -0.0272124 0.0188463 0.0268866 0.027054 0.0399752 -0.023813 -0.0320386 0.00518693 0.0315651 -0.0009411 0.0197754 -0.0344631 0.0378618 0.00410611 -0.0424511 0.0384098 0.0372463 -0.0195788 -0.0299818 -0.0464949 -0.000395271 -0.0626896 0.000441432 0.0207827 0.0363917 0.0276202 -0.0385964 -0.0162266 0.0033269 0.0309078 -0.017637 0.00533224 0.0395036 0.0455291 0.014694 -0.0201736 -0.0163331 0.00864336 0.039867 0.0143494 -0.0107876 0.0350818 0.0029569 -0.00522561 -0.0216948 -0.020558 0.0233524 -0.0189662 0.0102918 -0.00261301 0.00888934 -0.0312405 0.0459473 -0.0373618 -0.0476355 0.0477179 0.0153574 -0.0327838 -0.0382533 0.00826571 -0.0111202 0.0367859 0.031542 0.0336771 0.0313968 0.0178647 0.00193296 -0.00067358 0.0359257 0.0336651 0.0178134 0.0189588 -0.0208492 -0.0128779 0.015311 0.039949 0.0192224 -0.0151007 -0.00910802 0.0151681 0.00706542 -0.0397313 0.00695486 -0.0233295 -0.0274894 -0.0122528 -0.00690817 -0.00793347 -0.0311273 0.0209243 0.0294904 -0.0233097 0.0522598 -0.0244332 0.0326893 0.0448051 -0.0158388 0.0457977 -0.0204204 0.0031861 0.0313828 -0.0177421 -0.0227746 0.00920252 0.0013481 0.0245656 -0.0102711 -0.0586153 0.0165418 0.0255845 -0.030597 -0.0287538 0.0114828 -0.0161353 -0.00804835 0.0193548 0.000989229 0.0451492 -0.0446699 -0.000203183 -0.0517034 0.0423005 -0.00536667 0.00951015 -0.0305407 -0.0239881 0.00205748 0.0130347 -0.032009 0.0223038 -0.00924915 0.0335642 0.00403991 0.00257243 -0.044433 -0.0319764 -0.0434516 0.0338895 -0.0150248 0.0169661 0.0331905 -0.0317335 0.0539559 -0.0232291 0.0232545 -0.0106544 -0.0195094 0.0257652 -0.00784405 0.0214813 0.00311719 -0.0334654 -0.0229282 -0.000813111 -0.00494288 -0.00713984 -0.0247486 0.0396828 0.00954901 0.0136797 -0.0306981 0.0508058 0.027043 0.0285885 0.0279595 0.0349168 -0.0168158 -0.0192692 -0.0247716 0.0452556 -0.00737598 -0.0150843 0.0179758 -0.011305 0.00398685 0.0269273 0.0206891 -0.0356692 0.017061 -0.00940779 0.0234146 0.0133061 -0.0296113 0.0301418 0.00673424 -0.0283875 -0.0233364 0.01984 -0.0525902 0.0123915 -0.00447644 -0.0430384 -0.006427 -0.00360403 -0.0343315 0.0157379 -0.00503911 0.00460048 -0.0211423 -0.0213 0.0159538 -0.0151363 0.0209494 -0.00224249 -0.0194312 0.0348501 0.0237617 -0.0328405 0.0194353 0.0309563 0.0430009 -0.0418106 -0.00727285 -0.0108351 -0.0203748 0.00935171 0.00318229 -0.0202177 0.0264425 0.0053351 -0.0296114 0.0458506 0.014305 -0.0440114 0.0379101 -0.0256364 -0.0302812 0.0193382 0.0304062 0.000963098 -0.0032963 -0.0107977 -0.0188473 0.0129846 -0.0148799 0.0352784 0.00859458 -0.0270728 -0.0162089 0.0278449 0.0278787 -0.0110552 0.0530745 0.0054453 -0.0518385 0.0550801 0.0206981 -0.0387113 0.00691662 -0.0320016 0.0114937 -0.0371835 -0.0293433 -0.0328709 -0.0299727 -0.0368632 -0.0174564 -0.0439681 0.0248838 -0.014804 0.0312477 -0.0229202 0.0557011 0.0359941 -0.0167644 0.0219704 0.0080657 0.0190505 0.0294153 -0.0354837 0.000889323 -0.0296276 -0.00409416 0.00492764 0.0121129 -0.0205282 0.0015567 0.0307263 -0.037398 -0.0576932 0.0172725 -0.0125052 0.0114887 -0.0026973 -0.0012762 -0.0470024 0.0352848 -0.00531087 -0.00931036 0.0194532 0.0304236 -0.0246624 -0.0457208 -0.0137052 -0.0209433 0.0501846 0.0318708 -0.0462874 -0.0298181 0.0147692 0.0423436 0.00213954 0.0189531 -0.000675869 0.0198124 0.0301611 -0.0112184 0.0325094 -0.0244978 -0.000280838 -0.0445166 -0.000477048 0.0222162 -0.00218045 -0.00792004 -0.0189643 0.0172404 0.0285694 -0.0112362 0.0385359 0.0456388 -0.0115919 0.0364301 -0.00466993 -0.0191388 -0.00660731 0.00426693 0.00895305 0.0317751 -0.0114869 0.0145436 0.00266329 0.0529135 -0.0105129 -0.0279788 -0.0178641 -0.0205784 0.00589891 -0.0366551 -0.0133714 -0.0334615 0.011952 -0.0377154 -0.0259162 0.0285042 -0.029045 0.0183324 -0.0552541 -0.00617158 0.0417306 0.028132 0.0318024 -0.0334771 -0.00396526 0.020457 0.00820068 -0.0322537 0.023444 -0.0295604 0.00992545 -0.00791845 -0.027852 0.0145351 0.00393985 0.0318811 -0.0297491 -0.0394099 -0.0355602 -0.000517128 -0.0414845 0.00346787 0.00841462 0.045678 -0.0442325 -0.0242071 -0.0404173 -0.00705518 -0.00397876 0.0282882 0.00422833 0.00222792 -0.0171431 -0.036513 -0.0192109 -0.0362431 0.0317345 -0.0084722 -0.0070935 -0.0342696 -0.0236042 -0.033228 -0.0322937 -0.00954369 0.0194819 0.0221485 0.0297961 -0.0384697 0.0281377 0.0010384 -0.0301272 0.001554 0.00769445 0.0213594 -0.0260656 0.0291841 -0.00151038 -0.0357552 0.00180811 -0.00544694 0.01238 0.0307343 0.0192597 0.000525282 -0.03601 0.0422321 0.00212371 0.0395565 0.0284732 -0.0278443 0.014813 0.0237668 -0.00612268 -0.036204 -0.00648973 0.0327444 0.000763362 -0.00594868 -0.00120021 0.0171972 -0.0174326 -0.00421253 0.0453594 -0.0593487 0.00945548 -0.0111325 -0.0368074 0.00920949 -0.00895534 -0.023494 0.0179434 0.0100222 0.051769 0.00755575 0.0396359 -0.0151123 0.0355011 -0.0053509 -0.0278924 0.012979 -0.0128752 -0.011049 -0.0341013 -0.0327694 0.00836632 -0.0196152 -0.00530841 -0.0340538 0.00065338 0.0327111 0.0344224 -0.0198854 -0.0233559 0.0192035 -0.0382611 -0.0198757 0.0100213 -0.0132485 0.008764 0.01153 0.0247224 -0.0152124 -0.0441352 0.0167646 -0.0251787 0.00888773 -0.017508 0.00896796 0.0168437 -0.0233358 -0.0105659 0.0571282 0.0243252 0.031257 0.00602519 0.0208499 -0.00596511 -0.0176247 -0.0240924 0.0121965 -0.00205111 -0.0341332 0.018859 0.0260273 0.00664367 -0.00882087 0.028316 -0.022953 -0.0409367 -0.00280345 -0.037819 0.0327028 -0.0120588 -0.0115196 0.0260986 0.00164474 0.0288385 0.022472 0.0165508 0.0141935 0.0142728 0.0173726 -0.0513787 0.0212415 -0.0457259 0.0227306 -0.0190488 0.0015154 -0.0381732 -0.0466896 -0.00373337 -0.0229469 -0.00486464 -0.0179758 -0.0122134 0.0170751 -0.0295897 0.0199382 -0.0121871 -0.0420908 0.0250651 0.00752996 -0.0249827 -0.0173064 -0.0110036 -0.0182814 -0.0238147 -0.0360524 -0.0279794 -0.0195265 0.0305198 0.0528534 0.0115328 -0.037188 -0.0411175 0.0419929 0.0281611 -0.0428806 -0.0235191 0.035956 0.0415338 0.011183 0.0378656 -0.0361556 0.00429069 0.0298747 0.042306 -0.00932844 0.0468642 0.00902484 0.0171979 0.00282049 0.0121509 -0.0174473 0.0131587 -0.0101937 -0.00450245 0.0232842 -0.0089557 -0.0556351 -0.0423677 -0.0460635 -0.00490304 -0.0284534 0.0142851 -0.0361217 -0.0195352 -0.0213613 0.033638 0.0316346 -0.0242855 0.0244515 -0.0322835 -0.00909448 0.0305168 -0.0065699 0.00440112 -0.0130674 0.0230762 0.0352287 0.00606831 0.0216578 -0.0390178 0.0197683 0.00375416 0.0472148 -0.0197089 -0.00519439 0.0266644 -0.00519299 -0.0146842 -0.0212119 0.0426744 -0.0155502 0.0335721 0.00524848 -0.0119952 0.0144684 0.0166772 -0.00729544 0.0313441 -0.0171263 -0.0341465 -0.0239212 0.0314001 -0.0173765 0.0174124 -0.0263139 -0.00106663 -0.007514 0.0475979 0.0266481 0.000889185 -0.0377721 -0.012193 -0.030277 -0.00500306 0.0140334 0.00965255 -0.01658 0.0272317 0.0511183 0.00754533 -0.00561958 0.014599 -0.020909 0.0248866 -0.000971555 -0.0257655 0.0182765 -0.00599527 -0.00627814 -0.00974102 -0.0236538 0.0170446 -0.0473491 0.0277151 0.0412424 -0.00366607 -0.0327031 0.00880645 -0.0307808 -0.0159046 -0.0381007 0.0147668 -0.0380397 -0.020903 0.00180732 -0.0277749 0.0159849 0.0312322 0.00308437 0.0559707 0.0225287 -0.0245323 -0.00459103 0.00481131 -0.0334276 0.0160883 0.00667759 -0.0530551 -0.0396093 -0.0246915 -0.00858386 0.0347805 0.0334485 -0.019947 0.00801955 0.0370269 -0.0451735 0.0124362 0.00328089 0.0180548 -0.00729692 -0.0194287 -0.00694372 -0.00165955 -0.0397322 0.0348595 0.0377729 0.0364917 0.0116915 -0.0168513 0.00525846 0.0341184 -0.00496705 -0.0358872 -0.0368384 -0.0557036 0.00653222 0.0335566 0.0349856 -0.0231894 -0.0125842 0.024592 -0.0440219 0.0401346 0.0332923 0.0133932 -0.00639551 0.0281751 0.0412411 -0.0115733 -0.032584 -0.027901 -0.0112097 -0.00958771 -0.00595977 -0.020815 0.0135616 -0.0326015 0.0196215 -0.0278644 0.00242213 0.00939542 -0.024249 0.0209042 -0.0272158 0.0289885 -0.0188228 -0.00415893 -0.00610512 0.0277273 0.0218793 -0.00128151 -0.0161425 -0.0100621 -0.00167928 0.0316576 0.012866 -0.0230726 -0.00318408 0.031121 -0.000348454 0.0427226 -0.00953592 -0.0136872 -0.00742291 -0.0120082 -0.0223429 0.0183093 0.0200553 -0.0137023 0.0141501 -0.0132622 0.0252232 -0.00142899 0.0491727 0.0111084 0.0184393 0.022437 -0.021532 -0.023801 -0.0274176 0.0198735 0.0221101 0.0248997 -0.0551381 0.0148509 -0.0235567 0.0184314 -0.0369543 0.025221 0.00782196 0.0044476 -0.0374598 -0.0197044 -0.0383244 -0.0450676 0.0162225 -0.00482176 -0.0283676 -0.0197297 -0.0355189 -0.0309247 0.0207435 0.00827885 -0.0323074 -0.0088034 0.00366865 -0.0359021 -0.00597783 -0.053538 -0.0284533 -0.0063277 -0.0103339 -0.0277415 0.0135622 0.0191541 0.0173968 -0.0248338 -0.0138735 0.0108159 0.0290466 -0.0185399 -0.0387992 -0.0261219 -0.0372174 -0.00532828 -0.0428582 -0.0093046 0.031481 -0.0389828 0.0145285 -0.0292256 0.0455972 0.0108498 0.00570417 0.0377133 -0.0390559 -0.000822244 0.0582669 0.00690523 -0.0155289 0.00153868 -0.0615585 0.00291212 -0.0374014 -0.0138683 0.0185284 -0.00180034 0.0289604 0.0443812 0.0162205 -0.017395 -0.00658048 -0.0386786 0.0148039 0.00593106 -0.033192 0.0142312 0.000536167 0.0120105 0.0196764 -0.00119005 0.0157541 0.0160211 -0.0424954 -0.0127333 -0.0058801 -0.00782313 0.0112767 -0.0383225 -0.00883949 0.0331269 0.0351592 -0.00123604 -0.0431708 0.0155622 -0.00359111 0.0261222 0.00614265 -0.0304604 0.0123868 -0.0133928 -0.01436 0.0144373 -0.0163642 -0.025021 -0.0236069 -0.0240306 -0.00907686 -0.0372662 0.0194511 0.0250311 -0.0303631 -0.0253844 0.031365 0.000597776 -0.00691686 0.0168467 0.00893176 0.00219943 0.0265495 -0.00744606 -0.0138519 0.0262201 -0.0297451 -0.00253428 -0.0188478 -0.0222521 -0.00548229 0.0213601 -0.00211505 -0.0371114 0.00110094 -0.0136844 0.003771 0.0124822 -0.0241434 0.00745638 0.032274 0.0422647 0.0363736 0.00979232 -0.00679986 -0.0465022 0.0215624 -0.054003 0.0440346 -0.0308825 -0.0214036 -0.0190773 -0.0100446 -0.000590492 -0.0164109 0.029524 -0.0273066 0.0132736 -0.011777 0.00365021 0.0196358 -0.0219661 -0.0423051 -0.0132012 -0.0299829 -0.0404505 -0.0226089 0.0382803 -0.0288479 0.038972 0.0182234 0.0247291 -0.030585 0.0109809 0.0108364 -0.00837531 0.0250915 0.041645 -0.0607634 0.0222765 0.0546388 -0.0235414 0.00649513 0.00925518 0.0366305 -0.0172355 -0.0488422 0.0258284 -0.00137159 -0.0186242 -0.0202211 -0.00671261 0.0193909 0.00347621 -0.0161583 -0.0235078 -0.00541716 0.0246133 -0.0413413 0.0274696 -0.0190022 -0.0443713 -0.0105335 0.0111135 -0.00457273 0.00597635 -0.000326337 -0.00526815 -0.00497408 -0.0231594 0.0410991 0.0255022 0.0301455 0.0225791 -0.00304726 -0.0106686 -0.026255 0.0286991 -0.0360813 0.00972604 0.0133791 -0.0278971 -0.0219714 0.0101679 -0.0259287 -0.0135298 0.0266954 0.0155326 0.0456248 0.0302552 -0.0404327 -0.0195578 0.0340574 0.0189749 0.0155635 0.022002 0.0184001 0.0297054 0.0100492 0.0147523 -0.0400304 0.00826322 -0.022694 0.0149761 0.0361243 0.0292647 -0.00569481 0.013805 -0.0296687 -0.0288133 0.0215637 -0.0193373 -5.53832e-05 0.0169637 -0.0189293 -0.0171458 -0.0100452 -0.00545395 0.0526197 0.0564962 0.0462467 -0.0250536 -0.0331337 0.014569 -0.0442141 -0.0310399 0.0429673 0.0169835 0.00356388 0.0148765 -0.0331162 0.0130759 -0.021814 -0.0427624 -0.0144024 0.0375391 0.0128599 -0.0335612 0.0232642 0.020171 0.0603379 -0.030011 -0.0225985 0.00239606 0.0233839 0.0144984 -0.00948752 0.0299651 0.0295529 -0.0411738 0.0373298 0.0239859 -0.00627219 0.034149 0.020359 0.00799158 -0.00538099 0.0390362 0.0027627 -0.0423077 0.0145055 0.0123594 0.0317408 -0.0289449 -0.00738303 -0.0338184 0.0097815 -0.0299528 -0.02103 0.0154811 -0.00956025 0.00722989 -0.00355888 0.0185586 0.0116967 -0.0546377 -0.0557907 0.0294895 0.0409431 -0.0081564 0.0296557 0.0609191 0.0278734 -0.00313272 0.0325742 0.030232 0.00677197 -0.00379848 -0.0210592 -0.0207011 0.0418112 -0.046128 0.0311398 0.0140969 0.0360203 0.0174672 0.0248903 0.0193954 0.0171949 -0.0432437 -0.00669795 0.0408677 -0.0372838 0.0402553 -2.52719e-05 -0.0138928 -0.0137063 0.0355257 -0.00535966 -0.0193566 0.02987 0.0384089 0.0248126 -0.0469604 0.0163299 0.0156834 0.00582064 -0.0178844 0.0225198 -0.0403884 0.0345822 0.00493959 0.00567588 -0.02799 -0.0225877 0.0393431 0.00523147 -0.00182982 -0.0341031 -0.0174712 0.0332995 0.005408 0.0206776 -0.00811578 0.0174516 -0.0391578 0.0310267 0.0399538 -0.0422133 0.0177798 -0.0143339 -0.0177204 0.0236068 -0.0109398 0.0297805 0.00761377 -0.0316236 0.00626218 -0.022067 -0.00623242 -0.0191709 0.0237562 0.0276222 0.00205886 0.0181424 0.0138147 -0.037648 -0.00785188 -0.0339501 0.0308502 0.00919138 0.000169177 0.0188854 -0.0267291 -2.99581e-05 0.0151678 0.0288335 -0.0169346 -0.0069164 0.0159003 0.0231603 0.0114639 0.016463 0.0117701 0.0271079 -0.0361995 0.0271182 -0.0428774 -0.000143345 -0.0115267 -0.0168404 -0.00512808 0.0349596 0.0322519 -0.0315056 -0.0015303 -0.0213057 -0.0139318 0.0370674 0.0169223 -0.0448634 0.035886 0.0217471 -0.00547101 0.030297 0.0180331 0.0123426 0.00371144 0.0261697 0.007863 0.0381149 -0.0331664 0.00642851 -0.00319437 -0.00989416 -0.0404948 0.0385723 -0.0176846 0.0182721 0.0316241 -0.0155172 0.0070329 -0.0218107 0.00954536 -0.024082 0.0211913 -0.0197124 0.016179 0.00525914 0.00390947 -0.0266108 -0.0117648 0.0076131 -0.0145463 -0.0163084 -0.0150411 -0.0148429 -0.0374104 0.0389832 0.020333 -0.0246599 0.0293071 -0.0110819 -0.0225021 0.00894213 0.00535307 -0.0349677 0.0101791 0.0492827 -0.0371495 0.0389245 -0.00974674 -0.0426144 -0.0392682 -0.0366229 0.00400007 -0.00885211 -0.0175334 0.0169106 -0.0108712 -0.00194283 0.00392252 0.0276652 0.0241327 0.0147092 0.0325653 -0.00557957 0.0129304 -0.0417098 0.0390361 -0.0155258 -0.000900103 -0.0445295 0.0381049 0.0390565 0.0314589 0.0168562 -0.0146157 0.0533775 -0.00467042 0.00339943 0.0123931 -0.0453241 -0.0405791 -0.00351203 -0.0188902 0.0214192 -0.0300162 0.00520711 0.0158749 -0.00845957 -0.0215717 0.00742438 -0.00112191 0.0281526 -0.0513426 0.0288378 0.0275456 -0.00234964 -0.00185862 0.0220734 -0.0125491 0.00127035 -0.00888206 0.0251564 -0.0253728 0.0300299 0.015104 -0.0261988 -0.0247271 0.00172767 -0.0350802 0.0042649 -0.0227722 0.011336 -0.0432479 -0.0175859 0.027823 -0.0229775 0.00202574 0.0230587 0.041417 0.000400315 -0.0275893 0.0422805 0.0285265 0.031952 -0.00295924 0.0338823 0.005891 -0.00550138 -0.00485059 -0.0075868 -0.0129057 -0.0302875 0.0174992 -0.0200674 -0.00999839 0.0565643 -0.000905837 0.00751854 -0.0267771 0.0069406 0.00903529 0.0392418 -0.0251459 0.0259993 0.0336509 0.052823 -0.0170199 -0.025457 0.0229785 0.033696 0.00463588 0.0208234 0.0137034 0.00293416 0.00233316 -0.0183245 -0.0062061 -0.00203401 -0.0255192 -0.0263956 -0.042763 0.0496974 -0.00422466 -0.0380758 0.0248191 0.0299578 0.0169428 0.045496 0.0204466 -0.0180645 -0.0181858 -0.00116587 -0.0390749 -0.0457823 -0.0294238 0.0318768 -0.0214543 -0.0376071 0.0076763 0.0423038 0.0212479 -0.00249493 0.0206182 -0.00749177 0.00646689 -0.0172688 -0.0279939 0.0316394 0.0285747 -0.0272817 -0.0311217 0.031549 -0.00846583 -0.0195705 0.0368299 0.0265742 0.0170413 -0.0272899 0.0137643 0.0438068 0.0291794 -0.0253904 -0.0397048 0.0242897 -0.0154604 -0.0215303 0.00258879 -0.0335725 -0.00554864 0.00154437 0.0507342 0.0312399 0.0299808 0.0176106 -0.0205176 0.00362344 -0.00971491 0.0182002 0.0069089 0.0182272 -0.0225383 -0.0507545 -0.0551094 0.000560292 -0.00151951 0.0491123 -0.0428608 -0.0117629 0.05423 0.0482526 -0.0361039 0.041963 0.0125901 0.0390981 0.0413683 0.00878976 -0.0299765 -0.0144282 -0.0245852 0.00961485 -0.0439792 -0.0233043 0.0353205 -0.0194195 0.00446447 -0.0252103 -0.0314443 -0.0243025 -0.0332585 -0.0384152 0.00255765 -0.0236106 0.0405764 -0.0500661 0.0124522 -0.0250104 -0.0232307 -0.0283302 -0.0406687 0.0186028 0.0278284 -0.0411606 -0.0104405 0.0246583 -0.0195771 -0.00450073 0.0151283 -0.0076353 -0.0269293 -0.0349685 0.0359464 0.0197145 0.000705868 -0.00610126 -0.0475042 -0.00124331 -0.024083 -0.0148311 0.0352109 -0.000962986 -0.0216501 -0.0144819 -0.0240396 -0.0308593 0.0015243 0.0318066 0.00679097 -0.0205925 -0.01661 0.0120963 -0.00507488 -0.00416401 -0.0118734 0.0302749 0.0193901 0.0061594 -0.0314476 0.0292153 -0.00903211 0.0304505 -0.00786156 0.00550372 0.00148349 0.00934263 -0.00816953 -0.0193334 -0.000382498 -0.0284245 0.00357206 -0.00924573 0.0583108 -0.0192603 0.0185801 -0.0374478 -0.0340412 -0.037564 0.00382949 -0.0200766 -0.00644465 -0.0281778 0.0191286 0.021853 0.0294218 -0.0317352 0.00240011 0.0240352 -0.017392 0.0344246 0.0144715 0.0144242 0.00799546 0.0023185 -0.00886992 -0.00372776 -0.0175493 -0.0196523 -0.0292972 0.00376034 0.00451117 -0.0146393 0.0168042 0.00726213 0.0371951 0.0147777 -0.018629 -0.000157278 -0.0157812 0.0115641 0.0172908 0.0211382 -0.0293333 0.0138982 -0.00522397 -0.0101505 -0.0125922 0.00971453 0.0188345 -0.0168283 0.0562977 -0.0151308 0.0422307 0.00366605 -0.0411014 0.0356096 0.0297065 0.0128122 -0.0170299 -0.00776892 -0.01506 0.0211373 -0.0527371 0.0294915 -0.0150261 -0.0561891 -0.0396436 -0.0570829 0.00736284 -0.0121952 0.0203787 -0.037175 0.0313434 -0.0248107 0.0342622 0.0226881 0.00111074 -0.0325451 0.00168934 0.0132593 -0.0214965 -0.0174387 -0.014901 -0.01173 -0.0315048 0.0188409 0.0266526 -0.0287272 0.00530243 0.0222355 0.021591 0.0149391 0.0367444 0.0380809 -0.0132435 0.0131554 -0.0205321 -0.0308209 0.0204113 -0.0367534 0.039248 0.03192 0.0555062 -0.0318993 -0.0110749 0.0509362 0.00473274 -0.0322269 -0.0213697 -0.0567107 -0.0240598 -0.05719 0.0250941 0.0351903 0.0320044 0.00441574 -0.0106687 -0.0154834 0.0187912 -0.0301947 -0.0445564 -0.0461874 -0.0373205 0.0167322 -0.0398119 0.00641959 -0.0507083 -0.0175929 0.0332916 0.0567862 0.0561691 0.0391491 -0.0098998 0.0376035 0.00186109 0.0332281 0.0565401 -0.0084421 0.0338514 -0.0606191 -0.0228989 -0.00199217 -0.037613 -0.0509856 0.0314056 0.0109059 0.0324432 0.0124949 -0.00493915 -0.0170366 -0.028844 -0.0304716 0.0242857 -0.022911 -0.000162684 0.0213843 0.0322868 0.000714801 0.0408281 0.0361782 -0.0204697 -0.0171883 0.0285865 -0.0174999 0.0150879 -0.0296999 -0.019358 -0.0332383 -0.0781661 -0.0170383 -0.00477299 -0.0265923 0.019781 0.0391956 -0.0316526 -0.0162262 0.00984646 -0.00842319 -0.0610324 -0.00481393 -0.0249128 0.0105971 0.0279485 0.0504283 -0.00367118 -0.00467303 -0.0140857 0.0278736 0.0675786 0.0261916 0.00145444 -0.0117589 0.0095177 0.0225612 -0.00798337 -0.0462857 -0.00187435 -6.58029e-06 -0.0673704 0.0236289 0.000304968 0.0163806 -0.0333676 -0.0224696 0.0337376 -0.0129222 0.0352466 -0.0179025 0.0252891 0.049243 0.00688338 -0.0375288 -0.026165 -0.0359169 -0.0395574 0.0314491 -0.018199 -0.0400156 -0.0470429 0.00829125 -0.0145409 -0.00455315 -0.00099498 0.0460948 0.0217552 0.0148127 0.0130141 0.0166842 0.0270672 -0.0440231 0.0214918 -0.0106474 -0.0547768 -0.0464602 -0.0389683 -0.0393309 0.00171154 -0.0367272 0.027879 0.0298713 -0.0216138 0.0218733 0.0359045 -0.0349454 0.0504397 0.058669 -0.0212976 -0.00523994 0.00724046 -0.00184829 0.0360613 -0.0510986 -0.0101646 -0.0449296 -0.0338143 0.0406012 -0.0355216 0.0395889 -0.0154298 0.0429999 0.0529342 -0.0242757 -0.0351994 0.00284424 -0.0348544 -0.0220617 -0.0138506 -0.0114206 0.0455569 0.0344959 0.0164402 0.00339342 0.03051 0.0165149 -0.0485587 0.000691942 -0.0430939 0.0182541 -0.00410681 -0.029307 -0.0353074 -0.0420859 0.0358561 -0.0107925 -0.0255606 0.00703798 0.0369061 0.0331079 -0.00991052 -0.0212294 0.0126335 0.00361071 -0.0192249 -0.0423768 0.0446104 -0.00991853 0.0242643 -0.00242702 -0.0236877 0.0472613 0.00780814 -0.0228629 0.0168415 -0.0377193 0.0274292 -0.0294867 -0.0127899 -0.0325253 0.0379652 -0.0542411 -0.031748 0.0292319 -0.0199003 0.00229165 0.00404315 -0.0389876 0.00830095 0.00430698 0.00994874 -0.00842485 0.0172025 -0.0536404 -0.0213383 -0.00803522 0.000322653 -0.0378764 -0.00940057 0.0101049 -0.0195925 0.00206389 -0.00463951 -0.0661269 0.050936 0.0154472 -0.00294912 0.0206261 0.0226054 -0.0162781 -0.0620928 0.0364228 0.0395053 0.0315848 0.0206475 0.0296221 0.0135951 0.00247535 -0.0238002 0.0060615 0.0273215 -0.0557684 -0.0208718 -0.00902396 0.0221688 0.0174514 -0.0500097 -0.0349824 -0.0283579 0.00902197 0.0160454 -0.000574545 -0.0340221 -0.0382584 -0.0228846 -0.0494934 -0.0170094 -0.0129183 0.0343012 0.0252928 0.0184361 0.0331386 -0.00180737 0.0232632 -0.0400185 -0.0121211 0.000702873 0.0153204 0.0278602 0.0516147 0.0051506 0.0472611 0.0262574 0.00542348 -0.045318 0.0508813 0.0197987 0.0382749 -0.0125422 -0.0444971 0.0499962 -0.0367508 0.0067217 -0.0441642 -0.0204676 0.0240908 0.00600382 0.0372723 0.0176483 -0.0351323 0.0215087 0.0354846 0.026573 -0.0163164 -0.00923492 -0.0068785 -0.0412689 0.00697659 -0.0250099 0.0493641 -0.0251036 -0.0114339 -0.0406354 0.0361149 0.00338325 -0.00720661 -0.0419936 0.0502258 -0.0500768 -0.00320496 0.0333268 -0.0230614 -0.0624877 -0.00544666 0.000732618 -0.00851041 0.00377433 0.0183869 0.041497 -0.0253824 -0.0310794 -0.0490771 0.0242671 -0.0438292 -0.00802663 0.0112055 -0.0105793 -0.0530088 -0.05199 0.0118885 -0.0508688 0.0568209 -0.0351964 0.0173871 -0.0202367 0.0186767 0.00536281 -0.0307925 0.0258644 0.00890704 -0.0542584 0.0447287 0.0222291 0.0469573 -0.00264592 0.0294769 -0.00110486 0.00754595 0.0117017 -0.0116707 -0.0278335 -0.00927439 -0.0253095 0.0423856 0.013288 -0.00693958 -0.0329881 -0.0076439 0.00817565 0.013822 -0.0251625 0.0179713 0.0391366 -0.00903932 0.00868189 -0.0226675 0.0358294 0.0272363 -0.0380836 0.00270171 -0.0268413 0.0305108 -0.0331073 -0.0231912 -0.00972385 0.018065 -0.0290554 0.00789532 -0.0155662 0.0368929 -0.0238344 0.007791 -0.0502841 -0.0234303 -0.023153 -0.00716787 -0.00522498 0.020313 -0.0161407 -0.00885001 -0.0179507 -0.0220471 -0.0389727 -0.05186 -0.0542102 0.0153348 0.0516157 0.0222143 0.00951505 0.0234194 -0.00687334 0.0151437 -0.0298215 -0.0426759 -0.0203063 -0.023451 -0.00448861 -0.0208421 -0.0144045 -0.00634142 -0.00642797 0.0222523 0.0250624 -0.0493136 -0.00313446 0.0623418 -0.00605028 -0.0174456 -0.0176608 -0.0154896 0.0117945 0.00755858 -0.0451686 0.0198671 0.0293763 -0.021724 -0.0427329 -0.0207399 -0.0283029 -0.00411627 -0.0196285 -0.0630156 -0.0321851 0.0347743 0.0184321 0.0210755 -0.00697898 0.0467448 0.00905559 -0.0362654 0.0279407 0.0149025 0.0194079 -0.00666276 -0.0304504 0.00963651 0.0351551 -0.032276 0.0354367 0.0246019 -0.0228118 0.0407898 0.0295158 0.0244139 -0.0174549 0.033657 0.00221879 0.0377838 -0.00677291 -0.0319126 -0.0102422 -0.00506499 0.0259105 -0.0501942 0.00326231 0.0403595 0.0220584 0.00548706 0.030818 -0.0489197 -0.0627465 -0.00453606 0.0149514 0.0316283 0.00676675 -0.0138194 0.00990427 -0.0271631 0.038544 0.0518835 -0.0329042 -0.0167821 -0.0167159 -0.00555745 -0.00739107 0.00815382 0.0447139 0.0257657 -0.00160028 -0.00660791 -0.0223604 0.0308001 0.055904 -0.00497434 -0.0220151 -0.0105751 0.0185457 0.00681992 -0.0280881 -0.00561464 -0.00933208 -0.00107589 0.0121618 0.0257123 0.0424004 -0.0176981 -0.0146015 0.0370188 0.0372073 0.0348357 0.0446128 -0.0150272 0.0262352 0.00559834 0.00163384 -0.0370519 -0.0349684 0.0267345 0.0397678 -0.0130857 0.0241501 0.0374344 -0.00274055 -0.00682333 -0.0382566 -0.0520912 0.00411819 0.0484321 -0.0210366 0.00218352 -0.00823275 0.0624245 -0.0102909 -0.0133022 0.0219615 0.00255612 -0.026566 -0.00246056 0.0398778 0.0162238 -0.0165343 0.0101177 0.00617099 -0.0194197 -0.00178548 -0.00184587 0.0393759 -0.0397937 -0.0192806 0.0270039 -0.0231157 0.0201564 0.00136158 -0.015853 -0.00212933 -0.0195324 0.0346695 0.008774 0.0413131 -0.0294402 0.0157234 -0.0454021 -0.0473734 -0.000101901 -0.0209242 -0.0257892 -0.0242969 0.0205378 0.0163696 -0.00344518 -0.0464919 0.0333789 -0.0130452 -0.021607 -0.0251053 -0.0377316 0.01841 -0.00800718 0.0389952 -0.0418383 0.0256154 0.00310231 0.0380441 0.00281607 0.000639833 -0.0148217 0.0223689 -0.0337385 -0.0234876 0.0159 -0.0358381 -0.00483276 0.0641573 -0.0241558 -0.00708187 0.0309633 0.0227237 -0.0112823 0.0244927 -0.00255401 -0.00293912 0.0551903 0.019552 0.00938905 -0.00414569 -0.0262631 -0.00336923 -0.0431063 0.0166392 -0.0389157 -0.0192362 0.0307039 0.0515406 0.032609 0.00955892 -0.0106766 -0.0185027 0.0093893 -0.0245678 0.0246496 -0.00761109 -0.0277183 0.016013 0.0091885 -0.0430893 0.0072066 -0.00453983 0.00156239 -0.05027 -0.0457482 0.0116791 0.0475892 -0.0280349 0.0340648 -0.0292281 -0.0393786 -0.0351629 0.0345965 0.0110368 0.00373696 -0.00909383 -0.0480794 -0.047103 -0.01734 -0.039632 0.0496505 -0.000373719 0.00525171 -0.0304499 -0.0131553 -0.0169857 0.0254597 -0.0365791 0.00357394 0.00197293 0.00731707 -0.0088763 -0.0434087 -0.00928334 -0.0346492 0.00246406 -0.0311494 0.0154447 0.00884137 0.00223954 0.0164343 -0.0651821 0.00436624 -0.0371649 0.0120863 -0.0228232 0.000466195 -0.0281903 -0.00154194 0.0219564 -0.00310788 -0.0648395 0.0235731 0.0428727 0.00587889 0.0543671 0.00116277 -0.0353279 -0.0201125 0.0054025 0.0128482 -0.0548488 -0.0370973 0.000908737 0.0207597 0.0240682 0.0541112 0.0146641 -0.013553 -0.0212671 0.0258633 0.0167205 0.0292604 -0.0237739 0.012585 0.0471499 -0.0518331 -0.032283 0.0368945 0.00315019 -0.0528817 -0.0129588 0.022145 0.037183 0.0258867 0.00927674 -0.0124099 -0.0248689 0.0214691 -0.0412302 0.00949544 0.00154111 0.00109152 0.0131757 0.0334406 -0.0172094 -0.0189588 0.0332368 0.0535577 0.00184531 -0.0204575 -0.0621004 -0.00766212 0.0493052 0.0474111 0.0422456 -0.0301583 -0.0140527 -0.0222576 -0.0277967 -0.0194691 0.00495026 -0.00536517 -0.0566211 -0.0154757 0.0227676 -0.0187763 -0.00630443 0.019558 -0.0150236 0.000153121 -0.0373151 -0.013085 -0.032315 -0.0373079 0.0253175 -0.0546427 0.0647184 -0.0175001 -0.00678704 -0.00752138 -0.0176484 -0.0352959 -0.0298278 -0.0762226 -0.0480981 -0.0349142 0.0129474 -0.00922396 0.0463743 -0.0498137 0.0282233 0.0123426 0.0468789 -0.0196327 0.0264096 -0.00246016 0.0043584 -0.0264598 0.0598041 -0.0124579 0.0524072 0.0245033 -0.00163733 0.0572243 0.0206512 -0.0149432 -0.0526955 0.0178016 0.0331155 -0.0469701 -0.0471908 0.0192233 -0.017881 0.0159815 0.0252974 -0.010373 0.00162644 -0.00527459 -0.00860591 -0.0681976 0.0374541 -0.0251958 0.00169431 0.00887054 -0.0124398 -0.041964 -0.0302472 0.00111659 -0.0127135 -0.0196458 0.0397988 -0.0368142 -0.0366183 0.0178216 0.0157282 -0.0079659 -0.0107325 0.01565 0.0408538 0.021442 -0.0171284 -0.0378976 0.036698 0.0378485 0.0614533 -0.000258468 0.0224906 0.0373767 -0.0579689 -0.0315681 -0.022997 0.0209667 -0.0260276 -0.0166291 0.00607057 0.0528529 0.0301747 0.00380819 0.00369869 0.0450288 0.0379026 -0.0233255 0.0328871 0.0086608 -0.042493 0.0123091 -0.0583903 0.0283193 0.04088 -0.0496974 0.0205633 0.0120189 0.00583441 -0.0568006 0.0192609 -0.0262354 -0.00872311 -0.0395094 -0.0443305 0.00587068 -0.0316351 -0.0205509 0.0237696 -0.0274818 -0.0122727 -0.0229401 0.000187235 0.0183848 -0.0307759 0.0369441 0.00124164 0.00200661 -0.0368182 -0.0445137 -0.0452773 -0.0295414 -0.0157188 -0.0370742 0.019818 -0.00239928 0.01109 0.0189872 0.0352122 -0.0290234 0.00618646 0.00445428 0.0448431 0.00412748 -0.037218 0.0255118 0.0260484 -0.00908802 -0.040336 0.00750412 -0.00641611 -0.00193408 -0.0103051 0.000367419 -0.0139172 -0.0478435 -0.0226528 -0.0467945 -0.0390732 0.0396146 0.00738724 0.0345795 0.01078 -0.00491823 0.0255737 0.0241133 0.0333514 -0.0218347 -0.0416013 0.0257886 -0.0274944 -0.00219318 -0.0245398 -0.00159761 0.0483231 0.0305458 -0.0504644 0.0179076 -0.0315626 0.000696905 -0.0347897 -0.0388985 0.0229956 0.0410309 0.0283203 -0.0503154 -0.0288917 -0.0226999 -0.0590286 -0.0316506 0.0393337 0.0388238 -0.0254292 0.0132468 0.00420448 -0.0587041 -0.0337576 0.0165504 -0.020844 -0.044545 -0.00669554 0.0238065 0.0561116 -0.00647515 0.0399737 -0.0292959 -0.0231687 0.0328701 -0.0216595 -0.0231701 0.00616403 -0.0299175 -0.00547824 -0.025475 0.0375904 0.00920103 0.0323081 0.062142 -0.00635454 0.0265727 0.0229242 -0.0262763 -0.0190488 0.00702385 0.0314364 -0.0119229 0.0404109 -0.00345935 0.0223974 0.0444877 -0.0382954 0.0367123 0.00947289 -0.0065801 -0.000400307 0.0289377 -0.0285873 0.0260269 -0.0313876 0.0159853 0.0305038 -0.0117282 -0.00812204 -0.0210152 0.0301485 -0.0841349 0.0408096 -0.0151345 0.0615983 -0.0105562 0.00560485 -0.0219375 0.0389894 0.0394036 -0.0299784 -0.0198803 -0.00438723 0.0066211 -0.0266476 -0.0302718 -0.0417801 0.0240358 -0.0498299 -0.0395813 0.0540978 -0.0221695 -0.0437129 0.0468405 0.0510454 -0.0304805 -0.039175 -0.0132857 -0.0153623 -0.0142818 0.0149928 0.00249843 0.0142985 -0.0467144 0.00464579 0.00458616 -0.0139371 -0.0180777 0.0103973 0.0371874 -0.0336805 -0.00218279 0.0312838 -0.0422604 -0.025481 -0.00354625 0.0150295 0.0402219 0.0425022 0.0344092 -0.0186244 0.0487645 0.0226202 0.0212905 0.00617239 -0.0179106 0.0301935 0.00962815 -0.00822695 0.0230764 -0.00650357 -0.0221225 0.0145578 0.0287238 0.0226877 0.0377198 -0.0111251 -0.0390557 0.0153742 -0.028372 0.0169869 -0.0243018 0.00649871 -0.0100513 -0.0180236 0.0414822 -0.0129687 -0.0160594 -0.0189057 0.0137155 -0.0250812 -0.00320991 0.0470483 0.015087 0.0307613 -0.0276482 -0.0315 0.00653048 0.0243489 0.00213356 -0.0528921 -0.0323691 -0.0355456 -0.0137247 -0.047812 0.00181421 0.0114902 -0.0199043 -0.00727442 0.00560722 0.0283481 0.00942179 -0.00790822 -0.0283078 0.0191981 -0.00460551 0.0474282 0.0556571 0.00943031 -0.0229271 0.0104767 0.016848 0.0208614 0.0380376 -0.0200681 0.0378761 -0.0327941 0.0309469 -0.0372857 -0.0176424 -0.0187817 0.0557201 0.0255499 -0.023957 0.00620038 0.036004 0.0272985 0.0274016 0.00527633 -0.0152065 0.018863 -0.0212916 0.048048 0.00070934 0.0181167 0.00716899 -0.0122921 0.00381627 -0.0183495 0.0234687 0.00253205 0.0357527 -0.0215624 0.0234261 0.0279173 0.0197507 0.0217527 -0.0295982 0.031046 0.0048448 0.00544505 0.0217135 0.0113676 -0.0238026 0.00819919 -0.0471349 0.0111444 -0.0196798 -0.0229231 -0.020029 0.0011903 -0.00146856 -0.0143689 -0.0141643 0.0349304 0.0062895 0.00186262 -0.0456616 -0.0303443 -0.0595205 0.0396064 0.0330432 0.0164844 0.0520251 -2.66761e-05 -0.0548941 0.0440375 0.0368914 -0.0468207 -0.00262515 -0.0294636 -0.00680937 0.0247963 0.0626243 0.0386666 0.00484347 -0.0104751 -0.0304998 0.00725519 0.0133566 0.0406638 0.0013096 0.00127971 0.0155722 0.0462932 0.0333931 0.00831386 -0.000822514 0.0027828 -0.000233814 0.0164986 0.0399316 -0.00996604 -0.0388136 -0.0371893 0.0596788 0.0043877 0.017819 -0.00638475 0.0156599 -0.00659546 -0.0197196 -0.00991554 -0.0135763 0.0295932 -0.00284124 0.0225258 0.0290019 -0.0219333 -0.00910798 0.0577758 0.0291714 0.0343626 0.0425382 -0.0108307 -0.0231062 -0.0410577 -0.0347238 0.015313 -0.00556559 0.0521263 0.00839123 0.00149267 0.00122808 -0.0150626 0.0372996 0.0475564 0.00697254 -0.0124032 -0.00374109 -0.0410023 -0.00209735 -0.0225425 -0.0219298 -0.0185265 -0.0411539 -0.0238664 0.0276757 0.0340328 -0.0283766 -0.041218 -0.0167605 0.0080828 0.0171588 0.00711701 -0.0260304 0.0111315 0.0106243 0.0384955 -0.0261686 0.0228287 0.0260442 0.0295047 -0.00289792 -0.0182578 -0.0196068 0.0308961 -0.0142861 -0.0398575 -0.000456487 -0.00461625 -0.014745 0.0306471 0.0225292 -0.0341086 0.0359359 -0.0301108 0.0259346 0.0621128 0.0121385 0.0118903 -0.0157024 -0.0397264 0.0368793 0.00926089 -0.0234885 -0.0220296 0.00371201 0.0195359 0.0273764 0.0256636 0.0169961 -0.01862 0.0400452 -0.00702195 0.00232483 -0.0137704 0.0367194 -0.00703683 0.0473018 0.0503894 -0.0266526 0.0258064 -0.0144724 -0.017574 0.0282253 -0.0355236 -0.013156 0.0111025 -0.0015377 0.0276346 0.0169225 0.0353583 0.00662401 0.0364035 -0.0606925 0.0275343 0.00329573 0.0377705 -0.00184647 -0.021588 -0.0266849 -0.00595924 0.0110708 0.0260788 -0.0222879 0.00460463 0.000901181 0.0205041 -0.0123568 -0.030623 0.00226091 -0.0155902 -0.0138521 -0.0565014 0.0299249 0.0263665 -0.014606 -0.0600324 -0.0118945 0.0243928 0.017125 0.0139549 0.00374673 -0.0117534 -0.00976962 -0.00780096 -0.0155617 0.0100715 -0.0033896 0.0242407 -0.0320765 -0.0197506 0.00340837 -0.0366285 -0.00534297 0.0338512 0.013627 0.0170462 -0.0279094 -0.0381249 0.0304553 0.0156093 -0.0475336 -0.05446 -0.00272222 -0.000311948 0.00983283 -0.0196925 0.0396158 -0.0340821 0.00874702 -0.038631 0.0090518 -0.00426059 -0.0177106 0.0257259 -0.0326527 -0.0253588 0.0441952 -0.00140851 0.0667539 0.0326299 0.0170919 -0.041546 -0.0411664 -0.0145779 0.00278682 -0.003599 0.0242898 0.01306 -0.0032378 0.010522 -0.022704 0.0321194 -0.0290668 0.00797609 -0.016904 -0.024741 -0.0294226 0.0130793 -0.00314248 -0.0240663 -0.0197801 0.00502477 -0.0102184 0.054207 -0.0155302 0.00669993 -0.0283763 0.0427582 -0.0331626 -0.0264163 0.0297072 -0.0142366 0.0318854 -0.0275216 -0.0443542 -0.0191732 -0.0155202 -0.00248107 -0.0400083 0.0332322 0.0108306 -0.0549011 0.00162129 -0.00871266 0.0375633 -0.00683743 -0.0120386 0.0194164 -0.0171459 0.0400768 0.00741262 0.0221602 -0.0373699 0.0218626 -0.0482865 -0.017508 0.0125959 -0.039612 0.0105018 0.053246 0.0243138 0.036207 -0.0180306 -0.0025841 -0.00213616 0.0332542 -0.00266447 0.0386305 0.0224221 0.0335287 -0.0388099 0.009867 0.0425388 -0.00585468 0.027907 0.00438574 0.0228805 -0.016434 -0.0179116 -0.0502545 0.03611 -0.0502983 -0.0413611 0.0394207 -0.0370664 -0.0438279 0.0382497 -0.0365414 0.0362864 -0.0115952 0.0528916 -0.00101261 0.00877824 0.0233096 -0.0155497 -0.0269875 0.00701999 -0.00629909 -0.0307905 -0.00735322 -0.0129645 -0.0436458 0.0127675 0.0503402 -0.0169144 0.027163 -0.00887649 -0.0255311 -0.0344382 0.0127972 0.0393764 -0.0190201 -0.00350393 -0.00512036 0.0441163 0.051302 0.0430586 -0.0104686 0.0160647 0.0218215 0.0302975 0.00648071 0.0124326 0.0287952 -0.00996137 -0.0307943 0.0125742 -0.015208 -0.0566927 0.0242715 0.0167256 0.00975591 -0.0103917 -0.00242376 -0.0450091 -0.0132586 -0.0323606 0.0435858 0.0335067 0.0311164 -0.0286249 -0.0102439 -0.0228193 -0.0506202 0.00705635 0.0371329 -0.0337713 0.0381569 -0.0265564 -0.0152359 -0.0090404 0.00601996 -0.0368792 -0.0219465 0.0204607 0.0532513 0.0253882 0.0153303 -0.0130324 -0.0247734 0.0271067 -0.0689541 0.0432126 -0.0135502 -0.0207783 0.00665325 0.00322512 0.0105977 0.027123 -0.0191071 0.00770897 -0.0406154 0.0166437 -0.0301062 0.0331581 -0.0559592 -0.0499008 0.0295725 -0.0418879 -0.0504043 -0.0229173 0.00747702 -0.0103235 0.0256381 -0.00606059 0.0234143 -0.015617 0.0208594 -0.0264838 -0.0324785 0.05059 -0.0498159 0.0461501 -0.0285412 0.0198302 0.0257817 0.0286174 0.0346251 0.0233721 0.0239369 -0.0209204 0.0277726 -0.0317075 -0.011515 -0.0170652 -0.0301513 -0.0254722 0.0120133 0.049943 -0.0403896 0.0269677 0.0506735 -0.0354276 -0.00969053 0.031343 0.00575306 0.0202581 0.0217398 -0.0358769 -0.0298112 -0.0152844 0.00521896 0.0256674 0.0111674 -0.00342815 -0.0178499 -0.0046351 0.0106148 0.0107106 -0.0297651 0.041807 0.00988593 0.0500906 -0.00891057 -0.0440463 0.0188367 -0.0123088 -0.00723395 -0.0187229 -0.018546 -0.00209545 -0.0257562 0.0302 0.0110814 0.00485101 0.00889526 8.44925e-05 0.046183 0.0210595 -0.0180056 -0.0234364 -0.0265164 -0.0166923 0.0645109 -0.0318942 -0.00698718 -0.00296718 0.0203503 0.00847108 -0.0573107 0.014954 0.0499005 -0.024969 -0.0236369 0.0403557 -0.0275512 -0.025075 0.0389085 0.0264388 0.0412586 0.0178757 0.00344441 -0.00409723 0.00980512 -0.00150895 -0.0162408 0.0146742 0.0372548 -0.0393084 -0.0208494 -0.0256908 0.0130859 -0.0374636 -0.0429142 0.0510844 0.0304724 0.0403742 -0.00687913 -0.0275086 -0.00207622 0.015295 0.0154887 0.0161059 -0.0434206 -0.0567455 -0.0276776 0.000795386 -0.0382826 -0.00044658 0.0240349 0.0435005 0.0145585 -0.0039679 0.0305333 0.038686 -0.0100467 -0.0268911 -0.025961 -0.0430409 0.0274573 -0.0270975 0.00287315 -0.0223058 0.0104034 0.0434121 -0.0467213 0.00547033 -0.0336294 -0.0494318 0.0362357 0.0361533 -0.00771203 -0.0102291 0.00217106 -0.0598218 -0.0393431 -0.0126911 0.0116241 0.02349 -0.0324774 0.0102349 -0.0269739 0.0432195 -0.0134351 0.0509165 -0.0423484 0.0126858 -0.00892973 0.0222082 0.0196546 -0.0333957 0.0513969 0.0263275 -0.0123124 -0.00728404 0.00867682 -0.0224196 -0.00669669 -0.0427181 -0.0445537 -0.0213189 0.00847667 -0.0284708 -0.00881779 -0.00205821 -0.0281267 -0.0152312 -0.0320372 0.0147151 -0.0212871 0.0251587 -0.00611874 -0.0422495 -0.0192316 0.00930882 -0.0226112 0.0505067 0.0524973 -0.0402711 -0.0187487 0.0215431 -0.0485404 -0.0101121 0.0428074 0.0128929 -0.0153044 -0.0391772 0.0554216 -0.0406732 0.0289778 -0.00754796 0.0282648 -0.0095439 0.0300205 0.0126829 0.0173911 0.0244953 0.0265927 -0.000133196 -0.0136807 -0.00837611 -0.0319076 -0.00324081 -0.0185798 0.0294192 0.0104961 -0.0409409 -0.0138872 0.0533744 0.0104702 0.0537484 0.0251715 -0.0433834 0.0409876 -0.0324155 -0.00921814 0.0238537 0.0177986 0.0165845 -0.0144942 0.0237122 -0.00648395 -0.0325456 -0.0303142 -0.0254001 0.0567318 -0.00819565 -0.0146666 0.040394 0.0139823 -0.0465108 0.0325345 -0.0324238 0.0222824 0.0415983 0.0189812 0.0406703 -0.00808287 0.00956474 -0.0363157 0.0238096 -0.00508078 -0.00677875 -0.0409192 0.0323304 -0.0190821 -0.0278787 0.0219222 0.00641123 -0.0352783 0.0194195 -0.0315073 0.0244285 -0.0198042 -0.0344594 -0.00380322 0.0147629 -0.0220133 -0.00313752 -0.0258833 -0.0400335 0.00929669 -0.0471708 0.0189884 0.0431802 0.015008 -0.00193434 0.0407966 -0.0408835 0.0235234 0.00111224 0.00168188 0.00467555 0.0202227 -0.00931941 -0.0112578 -0.0295266 0.0350183 -0.000195354 0.00261383 0.0315762 -0.0227293 -0.000341715 0.00823537 0.0125373 -0.0237564 0.0329628 -0.0159682 -0.0380476 -0.0216264 -0.0114419 -0.0283227 0.0358873 0.00633464 0.0498246 0.0439223 0.016596 0.0298342 -0.0323177 -0.0174153 0.016579 0.0129428 0.0238325 0.0357112 -0.0216253 0.00290212 -0.0136568 -0.0193383 -0.00103163 -0.0272501 -0.00775843 -0.00664654 -0.0126448 0.00180439 0.0383985 0.00294658 0.0146753 -0.00641642 -0.0273747 0.0560428 0.036149 0.0186267 -0.0202773 -0.00113017 -0.0130457 -0.0320991 -0.0321513 -0.0275675 -0.0267421 0.0377193 -0.0253101 -0.0424093 0.0105268 0.0421027 -0.0322968 0.0214793 -0.0152738 -0.0515075 -0.023511 0.0412249 0.0326338 0.0122848 -0.033049 -0.011737 -0.00178114 -0.0103697 0.00309898 0.0108893 -0.0180145 -0.0543938 -0.0137798 -0.0546706 -0.0335182 0.0235576 0.0139941 0.00886622 0.0346687 -0.0223425 -0.0330736 -0.0211162 0.00342336 -0.0167877 -0.014103 -0.0461411 0.000393622 -0.0203557 -0.00627497 0.0300964 -0.0174971 0.00269868 0.0133339 -0.0157043 0.0242153 0.033822 -0.0273939 -0.0234985 -0.0140252 0.00711076 0.0382372 -0.026995 0.0192978 -0.0159258 0.00913044 0.016573 0.0329219 -0.0384149 -0.0362008 -0.0176009 0.0022692 0.0135942 0.0303075 0.0345275 -0.0356288 -0.0287167 0.0448979 -0.0234025 -0.0382941 -0.00798015 0.0104623 -0.0100611 -0.00107122 -0.0285325 -0.00276687 -0.0133508 -0.0405857 -0.0387132 0.0260374 -0.0422841 -0.0268713 0.0253457 0.0211974 -0.0098145 -0.012555 0.0105719 -0.0131719 -0.00237634 -0.0335067 -0.0147726 -0.0211716 -0.0258958 0.00826991 0.0339165 -0.00659143 0.0285367 0.0527793 0.013426 -0.0228186 0.00785375 0.047572 -0.0239328 0.0451846 -0.00158113 -0.017018 0.0448411 -0.0355989 0.0500319 -0.0121048 0.0149609 0.0170559 0.0273322 0.00237402 -0.00567335 0.0315315 -0.0033662 -0.00840643 0.0223575 -0.00925037 -0.0156502 -0.0264727 -0.0056593 -0.00813175 0.0206364 -0.0481816 -0.00202207 0.015869 0.00198728 -0.0280536 0.0288546 -0.0341763 -0.0405254 0.00102525 0.0310102 0.0121334 0.00175891 -0.0134446 -0.0012669 0.0263978 0.0147675 -0.0293398 -0.00981882 -0.010554 0.0488738 0.0279213 0.0101572 -0.0193442 0.0212876 -0.0185757 0.0329969 -0.0402674 0.00765722 -0.0178078 0.0391012 0.00409803 0.0132597 -0.0417192 -0.0465379 -0.0417814 -0.0271403 -0.0425602 -0.0326808 0.0289275 -0.0059736 -0.0219882 0.0343482 0.0377101 -0.0310858 -0.0152598 0.0200898 -8.65646e-05 -0.0334933 -0.0498888 -0.0195292 -0.0102347 -0.0332919 0.0232954 -0.0564124 -0.00424178 0.0364298 -0.04382 -0.0435736 9.6675e-05 -0.00642508 -0.0278318 0.0234197 0.00277841 -0.00637216 0.0413272 -0.0243599 0.0234145 0.0119863 0.0329372 -0.0148119 0.000547326 0.00723532 -0.00275548 0.0120137 0.00479824 0.0393482 0.0184719 -0.0239455 -0.00263794 0.0370288 0.000278045 0.0429621 -0.0119128 -0.00211597 0.00438577 0.0233087 -0.00198549 -0.00377406 0.038676 0.00326857 -0.0306657 -0.0154748 0.0201053 -0.00968447 0.0162834 -0.0385653 -0.0282988 -0.013842 0.00487947 0.0145571 0.00815507 0.0215318 -0.0066072 0.0127619 0.0347318 0.0297214 -0.00399215 -0.0100786 0.0508795 -0.00696106 -0.061559 -0.0135226 0.000801257 0.0256534 0.034695 0.0239374 -0.0159469 0.0247341 -0.000653683 0.0349831 0.014639 -0.0311721 0.0385702 0.0309953 0.0322167 0.0209882 -0.0498105 -0.044862 -0.0300629 0.0112331 -0.00223899 -0.0133955 0.00976753 0.00891266 0.0254259 0.0126644 0.0409286 -0.0293981 0.0191846 -0.0456598 0.0403661 -0.0179008 0.0503752 0.0289944 -0.0318542 -0.030273 -0.0268466 -0.0158054 -0.0269175 0.0307715 -0.0137008 -0.0115661 -0.0315816 0.00548163 -0.0194006 -0.0218242 -0.00955996 -0.0163811 0.0214833 -0.040548 0.0473257 0.00524587 0.0257073 -0.0053161 -0.00871286 0.043217 -0.00208443 0.0399282 0.0313291 0.0148473 0.0353487 0.030623 0.0220915 -0.0103863 0.0178181 -0.0479397 0.0341744 0.0477582 0.0108201 0.0298005 -0.0205757 0.0121023 -0.0276777 -0.0191112 0.0157565 0.0423032 0.0290459 -0.025621 -0.000962285 -0.00642079 0.0211756 0.00806117 0.034346 -0.017325 0.0160247 0.0174862 -0.0104562 0.0309371 -0.0538978 0.0226981 0.0325135 0.0371502 -0.0152131 0.021696 -0.0243654 -0.0299154 0.0027986 0.0412039 0.0442583 -0.00549566 -0.00289382 -0.0129901 -0.0394639 -0.00213181 -0.0171086 0.00515227 0.00999644 0.000542969 -0.0171823 0.0369564 -0.00847595 0.0148757 0.0078576 -0.0181659 0.00753094 -0.0296939 0.0360286 -0.000376462 0.00944836 -0.0231032 0.0106822 0.0454024 -0.0409422 0.0203924 -0.026036 0.0127915 -0.00466219 0.0387987 0.00388704 -0.0282316 -0.0268145 -0.0217402 -0.0111964 -0.0155692 -0.0230832 0.0100651 -0.0211173 -0.0398283 -0.0430395 0.0320167 0.000642174 0.0103194 -0.0443986 0.0145693 0.035989 0.0176307 0.0344949 0.00656062 -0.0121375 0.0270547 0.0207033 -0.0144958 -0.0352679 -0.0398502 -0.0365095 -0.0153067 -0.0133527 -0.0286425 -0.0150428 -0.00561978 0.0206199 0.0397533 -0.014344 -0.00935319 -0.0251339 -0.0381549 -0.0194184 -0.0458711 0.0154557 -0.0288336 -0.0319246 -0.00289606 0.0214782 0.0107654 0.00128589 0.016133 0.00495021 -0.0146967 -0.0060307 0.0264079 0.061418 -0.0305234 -0.0299599 0.00169576 0.0101752 0.038324 0.0206439 -0.0380585 -0.0380211 0.0148309 -0.0152547 -0.0273915 0.0303993 -0.0358975 -0.0248283 -0.0293406 0.0407914 -0.0154883 -0.0355164 0.0402789 0.0143389 0.00535156 0.0101986 0.00367144 -0.0155101 0.0182998 -0.00807423 -0.0268081 0.0308573 -0.00207885 0.017045 -0.0201659 -0.0217968 0.018464 -0.0140855 -0.021276 0.0223726 0.0136882 -0.00528412 -0.0223166 -0.0472723 -0.0262381 0.0421418 -0.0103122 0.0371888 0.0382203 0.0180772 0.0210262 0.0223488 0.0251417 -0.0136229 -0.0375431 -0.0193172 0.0104403 -0.03553 0.00393112 -0.016222 -0.00213644 0.0422197 0.00333415 -0.0160053 -0.0263501 -0.0189065 0.0370171 0.0108021 0.0239759 -0.04021 0.0070932 -0.048092 0.0421593 0.0337286 -0.0299415 -0.0100287 0.0410241 0.0442687 0.000457141 -0.0114236 0.027493 0.0307077 -0.00976607 0.034719 0.00685991 -0.000988789 -0.0329236 0.0230406 -0.00172969 -0.0332279 0.0240437 -0.00967905 0.0198688 0.0322376 -0.035057 0.0173579 0.0292505 0.0293606 0.00449782 0.020584 0.0352423 0.0130695 0.0167674 0.00600454 0.0269725 -0.00545139 -0.0228445 -0.0327657 -0.0239209 -0.0306514 -0.0209538 -0.0336936 -0.0175637 -0.0341538 -0.0623722 -0.0187271 0.0248949 0.00018856 -0.0118054 -0.0409025 -0.0441574 0.0415249 -0.000256768 0.0156895 0.0127429 0.0147028 -3.43183e-05 0.000990963 -0.0143291 0.0149352 -0.00449784 -0.0400801 -0.0400221 -0.00193971 -0.00715744 0.00263668 0.0126325 0.0156317 0.0234741 0.00299507 -0.0502346 0.0332204 -0.0294863 0.00697801 0.00401358 -0.0190227 -0.0325945 0.000667419 -0.0284062 -0.004351 0.0158079 0.029698 -0.0155584 0.0450557 0.00783525 -0.00185557 0.00875735 0.0398093 0.0180358 0.0491893 0.0570034 -0.00855264 0.0102406 0.00533682 -0.0479488 -0.0481662 0.0285287 -0.0063424 -0.00763073 0.0348006 -0.0405636 0.00382659 0.0342754 -0.0252252 -0.0544812 0.0187148 -0.00234864 -0.0294322 0.0182003 0.0302831 0.0114554 -0.0100501 -0.00981269 -0.0277548 -0.0432157 0.0189121 -0.0457698 -0.00714736 -0.0411679 0.023571 0.0230155 -0.0104909 -0.00576453 0.0362423 -0.037317 -0.00522871 -0.0136353 0.0370828 0.0331444 0.00247491 0.00237435 0.0230424 0.0143375 -0.0314273 -0.0183826 0.00592157 0.00628581 -0.00804877 -0.0273841 -0.002759 -0.0348284 7.35992e-05 0.0362114 0.0248585 0.0305726 0.021394 -0.00450887 0.0167473 0.0102145 0.0164936 0.0351988 0.00970683 0.028322 -0.0197784 0.039082 -0.0109109 -0.0208366 -0.0565486 -0.0264773 0.0161334 -0.0316936 -0.000257603 0.0229638 -0.0269767 -0.0232759 0.0118028 0.00563273 -0.00450867 0.017352 -0.00127496 -0.0169624 0.0210727 0.0367638 0.0281783 -0.0143886 0.0318213 0.0267185 0.0351433 0.0312439 -0.00952529 -0.0295191 -0.00516886 -0.0155375 -0.0163308 -0.00444682 0.0230717 -0.0112649 -0.0177387 0.0141967 -0.00261025 0.0260202 0.0219836 0.00347046 -0.0203073 0.0372266 0.00725105 0.00606623 -0.0210585 0.0398166 0.0406057 -0.0430459 0.00243113 0.0240689 0.045447 -0.0197083 0.0366279 -0.00682717 0.0202231 0.0331554 -0.0349016 0.0211116 -0.0108693 -0.0116271 0.0072969 0.0462429 0.00210841 -0.0230376 -0.0222799 0.00546305 -0.00180513 0.0175563 -0.0283954 -0.0170355 0.0110476 -0.0324156 0.0140271 0.0112578 -0.00393546 -0.0286233 0.0236058 0.00545639 0.0140383 -0.033753 -0.0252745 0.0104746 -0.0134379 0.00917843 -0.0184077 -0.0200473 -0.0205212 -0.0288922 0.00948828 0.0121016 -0.0302881 0.0156652 -0.0183577 -0.0332044 0.0356298 -0.0308535 -0.0457089 0.0148152 0.006799 0.000694288 0.0296143 -0.0191739 -0.00929123 0.0224756 -0.026908 -0.0104327 0.0160481 0.0167272 0.0104661 -0.0135614 0.00476254 -0.00726969 -0.015538 0.029939 0.0144719 -0.0326447 0.00178604 -0.0227181 -0.0462398 -0.00686883 -0.00315504 0.00227241 -0.0335837 0.034346 0.022286 0.0258186 -0.000760901 0.0341687 0.0259773 6.81409e-05 0.0259244 0.00997924 0.00388722 -0.00701743 -0.00532167 -0.0284022 0.0367911 0.0119364 -0.0134772 -0.0383009 0.00569584 -0.0457409 -0.0144987 -0.0336818 -0.0187677 0.0341693 -0.00622301 0.00952926 -0.0219181 -0.0275034 0.00410093 0.024402 -0.0256896 0.0130789 0.0134139 0.00844882 0.0374886 0.0163509 0.0273854 0.00589284 -0.0287803 0.00636734 -0.0409703 0.0228548 -0.00453573 0.0159505 -0.0276088 -0.0125228 -0.0345411 0.0181074 -0.00066736 -0.0221218 0.0357021 -0.0102514 0.0178907 0.0188758 0.031393 -0.0170006 -0.027249 -0.036942 0.00519124 -0.0470009 -0.0163671 0.00216957 0.00395501 -0.0300106 -0.0170986 -0.0385428 0.00321948 -0.00597321 0.0251474 -0.0153153 -0.00492616 -0.0175994 0.00240583 0.00416684 -0.0282916 -0.00652283 0.0179425 -0.0274785 -0.0278356 0.00777099 -0.000187357 0.0135804 -0.0369201 0.0272894 0.0178372 0.00612068 0.0172163 0.0417299 -0.0648699 0.0360349 0.0158614 0.0256157 0.0215589 0.0179208 0.0341217 0.0171825 0.017102 0.0342409 0.0218467 0.0260348 -0.019427 0.0373131 0.025967 -0.0258221 0.0294199 -0.00636034 0.0246488 0.0250962 0.0214 0.0264292 0.00334158 0.010027 -0.0188139 -0.0317584 0.0288317 -0.00924032 -0.00864463 -0.041007 -0.00119782 -0.00622112 -0.0358982 0.0359239 -0.00247119 0.0255948 -0.0451803 -0.026293 -0.0194648 -0.0275112 0.0159483 -0.0257311 0.0235975 0.00814053 0.00448145 0.0190458 -0.0091506 -0.0337797 -0.0130574 0.022815 -0.00436177 0.0152923 -0.0147458 -0.0291903 -0.0157905 -0.00846312 -0.00505457 -0.0389318 0.00218957 -0.00887883 -0.0188737 -0.0109457 -0.041138 0.00450564 -0.0271019 -0.0284668 0.00746549 0.0422247 0.0104142 0.00655439 0.0199838 -0.0281323 -0.0338415 0.0186605 -0.0410892 -0.0139435 -0.0164804 0.0203686 -0.0144712 0.0412141 -0.030218 0.00811207 -0.000230301 0.0447984 -0.0218288 -0.0125045 -0.00195448 -0.0179479 0.00693763 -0.0166284 -0.00571816 0.035082 0.040106 -0.02541 0.0400911 -0.0195896 0.0301021 -0.0143267 0.00804984 -0.0335755 -0.020712 0.0110066 0.0218108 0.0276314 0.0268142 -0.00893002 -0.017509 -0.00726033 -0.00396326 -0.0110433 -0.0302689 0.0238147 -0.00787808 -0.0271372 -0.037683 0.00445476 -0.00224323 -0.0327267 -0.0235943 0.00776508 0.0112889 -0.0126856 -0.0185788 -0.0238677 0.00989118 0.0328891 -0.0274551 -0.031375 -0.0280965 -0.0595254 -0.00702602 0.0142203 -0.0302993 -0.0207587 0.024183 0.0261639 0.0303847 -0.0241723 0.00500978 -0.0153081 -0.0232429 0.0228993 0.0156454 -0.0251785 -0.0319701 -0.00473158 7.93526e-05 -0.0522455 0.00950301 -0.0264031 0.00523405 -0.0001351 0.0265867 0.0160059 0.0336917 0.00768171 0.00462674 -0.0193294 -0.0220561 -0.00679758 -0.0380468 0.00556934 0.00969043 -0.0263093 -0.0021379 0.0109052 -0.0184536 0.00259786 -0.00861477 -0.0453486 -0.0264014 -0.0112181 -0.0225637 0.00109048 0.0175161 0.0547954 -0.0184508 0.0148365 0.041288 -0.0328103 -0.0464203 0.0453517 0.0193619 -0.0104062 0.0284749 -0.0276778 0.0490217 -0.000677528 0.0336798 -0.0215023 0.00763267 -0.0161812 -0.00873987 -0.0383322 0.0176205 0.0325503 -0.0136604 0.0119004 -0.0109432 -0.0169314 0.0390494 0.00254389 0.0476857 0.00315523 -0.00857853 -0.0195491 -0.051239 0.0351377 0.015254 -0.0467867 -0.000212788 -0.0234369 0.0193055 0.0213421 0.0404473 0.0178852 -0.0213474 -0.00260131 0.00743999 -0.00266866 -0.0344933 -0.0427473 0.0544489 0.00472216 -0.0577601 -0.000212526 -0.0215962 0.0494907 0.0757652 0.0434514 0.0105473 -0.0460467 0.0503759 -0.0511853 0.0176328 0.0459636 0.00288661 0.0112003 0.0253624 -0.0113855 -0.00538733 -0.0321907 0.0339304 0.0340321 0.0386487 0.0242182 0.0137293 -0.0646513 -0.017109 -0.0347511 0.0450581 0.00685255 -0.0749051 -0.0294712 -0.00815279 -0.0415825 0.022353 0.0172273 0.0127761 -0.00159379 0.00244262 0.0226942 0.0504539 -0.00227241 -0.0213678 0.0189809 -0.0406035 -0.0151307 -0.0201286 -0.0115909 -0.00625713 -0.0316059 0.0171137 0.0173032 -0.00705001 -0.014429 -0.021303 -0.0266159 0.0570555 -0.00802457 0.0189961 -0.0255585 0.0170968 0.0371701 0.00864541 -0.0159802 0.00705515 -0.0182133 -0.0432996 0.0439363 0.0473298 -0.0478357 -0.0377701 0.0463382 -0.0145775 0.0158045 -0.00867947 -0.0194996 -0.0204021 -0.0388903 0.0102521 -0.00702669 0.0193362 -0.00240956 0.0486695 0.0146937 0.0270233 0.0323605 -0.0142648 -0.0232286 0.0267306 0.00532335 -0.0132492 -0.0316086 -0.0102166 0.0395102 0.0104448 -0.029115 -0.0395565 -0.0179499 0.0199124 -0.02355 -0.00720656 0.00872358 -0.00101244 0.0281087 0.0243578 -0.0432655 0.00142587 0.0263897 -0.00775076 0.028199 0.00541264 -0.0166754 0.010204 -0.0238341 0.0166346 -0.0461802 0.0267686 -0.00328892 -0.0329103 0.00375141 0.0037804 0.0425127 -0.0192813 -0.000128381 -0.0180758 0.043558 -0.00487565 0.00359622 0.00593077 0.00745344 0.00124277 0.00581561 0.0251491 -0.0180215 0.000342351 -0.00472372 0.00184406 -0.0360718 0.0189816 -0.0158893 0.00136227 -0.00991576 -0.00134199 0.0134092 0.0217647 -0.0143376 0.00721549 -0.0536573 -0.00700346 -0.00344138 -0.0201785 0.0044352 -0.0304461 -0.00631644 0.0263996 0.0273534 -0.000772295 -0.015841 0.00234638 -0.00120299 -0.0287786 0.00836361 0.0168921 0.0131622 -0.0251707 -0.0169589 -0.00708533 0.0344387 -0.0602648 0.0277021 0.0213393 -0.0171537 0.032497 0.00659664 0.0353297 0.0288536 0.0217893 0.0108419 0.0286887 -0.0276216 -0.0258932 -0.00951037 -0.00204561 -0.0139206 0.0246749 -0.0343185 -0.00163048 0.0219523 0.00428033 -0.00245149 -0.0242397 -0.0099912 0.0377032 0.0302898 0.00576904 -0.00891017 -0.0215444 0.0269255 0.0260677 -0.0400579 -0.0396935 -0.00110603 -0.0165742 0.0406625 -0.0178815 0.0180453 -0.00414881 0.0551869 0.0292735 -0.0378605 -0.0076582 -0.0292963 0.0395849 -0.0367489 0.0427929 0.00390554 0.00270579 0.0368624 0.0548902 -0.0247717 0.036414 0.0516276 0.0328895 -0.0277491 0.0284711 0.0253813 0.0244262 -0.0226092 0.0370654 0.0170501 0.00794811 -0.000736902 0.0473606 0.0385268 -0.00797849 -0.00642201 -0.0245271 -0.0115641 0.00329773 -0.0247938 -0.00787576 -0.00853158 0.0329544 -0.0071578 -0.000437263 0.0054535 -0.0113252 0.0259492 6.87685e-05 0.00755415 -0.00902868 -0.033643 0.0341919 -0.00826238 0.0232099 0.0132542 -0.0266246 -0.0429652 0.0238412 0.00773863 -0.0636996 0.0459141 0.0574375 0.0204347 -0.0231452 0.0239915 0.0312684 -0.0219527 0.00448848 -0.0322877 -0.00544024 0.0460231 0.00230338 -0.00920503 -0.0522599 -0.0241502 -0.0270172 -0.0289721 0.0312826 0.0163815 0.030331 -0.0408773 -0.0473769 -0.0125528 0.0267803 0.0264183 0.00798788 -0.0226798 0.00855294 -0.0315734 0.0361242 0.0146161 0.00161138 -0.0434558 0.00339241 0.0133676 0.00340418 0.0243911 -0.039269 -0.025672 -0.021944 -0.0293688 -0.0111281 0.0169179 0.012408 -0.0164903 -0.0156946 0.00636655 -0.049441 -0.0378825 0.0299843 0.00771686 0.00884695 -0.0245499 -0.0119743 -0.0094064 -0.00287002 -0.0238438 -0.0190488 0.00180468 -0.037475 0.0199802 0.0150454 0.000754024 -0.000177654 -0.0148574 -0.0320268 -0.022753 0.0147772 -0.0451433 -0.00678056 -0.0130592 0.00329696 -0.0207884 -0.00659678 0.00665466 -0.011967 -0.0243368 0.0253344 0.0104705 0.0533902 0.00639528 0.00638926 0.0387603 0.0247371 0.00539513 -0.0237711 -0.0393659 -0.0313558 0.00857472 -0.0145469 0.0178782 -0.0405545 -0.0373399 0.0357927 0.0143722 -0.00785104 0.00996522 0.0203517 0.026243 -0.00753035 0.0377545 -0.0142309 -0.0294678 0.000105209 -0.0397397 -0.02211 0.00573682 0.0139372 0.0395983 -0.0318363 0.000223008 -0.0171824 -0.0308322 -0.0381784 0.00828542 0.0212376 0.0403768 0.0310356 0.0472746 